%YAML:1.0
---
opencv_ml_svm:
   format: 3
   svmType: C_SVC
   kernel:
      type: RBF
      gamma: 5.0624999999999998e-01
   C: 1.2500000000000000e+01
   term_criteria: { epsilon:1.1920928955078125e-07, iterations:1000 }
   var_count: 324
   class_count: 13
   class_labels: !!opencv-matrix
      rows: 13
      cols: 1
      dt: i
      data: [ 0, 1, 2, 3, 4, 5, 6, 7, 8, 9, 10, 11, 12 ]
   sv_total: 543
   support_vectors:
      - [ 5.42204261e-01, 2.46683970e-01, 1.44600511e-01, 1.86010655e-02,
          1.89856991e-01, 4.00588781e-01, 2.13372678e-01, 2.87160605e-01,
          5.42204261e-01, 4.22083676e-01, 8.49782005e-02, 1.87371626e-01,
          6.13324344e-02, 4.22083676e-01, 4.22083676e-01, 4.22083676e-01,
          2.42733046e-01, 4.22083676e-01, 4.32785660e-01, 4.04793210e-02,
          6.54274374e-02, 4.39322628e-02, 4.32785660e-01, 4.32785660e-01,
          3.88586521e-01, 2.95997053e-01, 4.32785660e-01, 5.12030795e-02,
          1.52060255e-01, 1.17184810e-01, 8.08029175e-02, 4.67923373e-01,
          6.00948691e-01, 6.00948691e-01, 5.86262345e-02, 5.76723441e-02,
          4.53207701e-01, 4.53207701e-01, 3.18117410e-01, 2.28665218e-01,
          4.53207701e-01, 4.53207701e-01, 9.96809676e-02, 2.84906123e-02,
          9.82330069e-02, 4.27065998e-01, 4.27065998e-01, 8.28896910e-02,
          1.08190171e-01, 4.27065998e-01, 4.27065998e-01, 4.10221487e-01,
          1.46217838e-01, 2.40739226e-01, 4.55688924e-01, 4.55688924e-01,
          3.35111260e-01, 7.37259686e-02, 2.41739169e-01, 4.55688924e-01,
          3.59204382e-01, 2.03839354e-02, 2.58601964e-01, 4.13571656e-01,
          4.13571656e-01, 4.13571656e-01, 1.37545884e-01, 3.16310316e-01,
          4.13571656e-01, 4.13571656e-01, 8.19581449e-02, 1.22363649e-01,
          5.15342474e-01, 5.15342474e-01, 4.03271168e-01, 6.54905736e-02,
          3.49090666e-01, 3.96201760e-01, 1.23554736e-01, 3.03838067e-02,
          4.18544784e-02, 4.55688924e-01, 4.55688924e-01, 3.35111260e-01,
          7.37259686e-02, 2.41739169e-01, 4.55688924e-01, 3.59204382e-01,
          2.03839354e-02, 2.58601964e-01, 4.13571656e-01, 4.13571656e-01,
          4.13571656e-01, 1.37545884e-01, 3.16310316e-01, 4.13571656e-01,
          4.13571656e-01, 8.19581449e-02, 1.22363649e-01, 5.15342474e-01,
          5.15342474e-01, 4.03271168e-01, 6.54905736e-02, 3.49090666e-01,
          3.96201760e-01, 1.23554736e-01, 3.03838067e-02, 4.18544784e-02,
          4.74620402e-01, 1.58020020e-01, 4.23109420e-02, 1.74348336e-02,
          4.67321366e-01, 4.74620402e-01, 2.64575541e-01, 6.33386448e-02,
          4.74620402e-01, 5.26482880e-01, 5.26482880e-01, 2.86847562e-01,
          3.21619562e-03, 2.27182776e-01, 3.97613823e-01, 3.47908676e-01,
          1.07775547e-01, 1.25367850e-01, 6.80368125e-01, 6.80368125e-01,
          2.28230402e-01, 4.52110395e-02, 0., 6.58585131e-02,
          8.20964798e-02, 8.82398430e-03, 4.60233614e-02, 6.87709004e-02,
          4.48472470e-01, 4.48472470e-01, 1.22900151e-01, 4.13654178e-01,
          4.48472470e-01, 4.48472470e-01, 1.60027575e-03, 8.00543185e-03,
          2.15806931e-01, 6.65887415e-01, 6.65887415e-01, 3.29364911e-02,
          8.96992758e-02, 1.81538939e-01, 1.24148928e-01, 4.68848832e-02,
          1.64105203e-02, 4.13446993e-01, 4.13446993e-01, 4.13446993e-01,
          1.27210423e-01, 2.05375208e-03, 2.90678263e-01, 4.13446993e-01,
          4.13446993e-01, 2.01239049e-01, 4.32785660e-01, 4.04793210e-02,
          6.54274374e-02, 4.39322628e-02, 4.32785660e-01, 4.32785660e-01,
          3.88586521e-01, 2.95997053e-01, 4.32785660e-01, 4.19663906e-01,
          4.19663906e-01, 1.23688206e-02, 1.25092687e-03, 4.47746180e-02,
          3.78713787e-01, 4.19663906e-01, 4.19663906e-01, 3.81776512e-01,
          5.90699136e-01, 5.90699136e-01, 2.40071453e-02, 1.80118736e-02,
          2.25999299e-02, 8.37052539e-02, 3.46064925e-01, 1.91184327e-01,
          3.62657249e-01, 4.27065998e-01, 4.27065998e-01, 8.28896910e-02,
          1.08190171e-01, 4.27065998e-01, 4.27065998e-01, 4.10221487e-01,
          1.46217838e-01, 2.40739226e-01, 6.35207593e-01, 6.35207593e-01,
          8.24239943e-03, 6.40892657e-03, 5.52371107e-02, 2.03227878e-01,
          3.64621490e-01, 6.85818195e-02, 6.75764456e-02, 6.69757068e-01,
          6.69757068e-01, 1.24570228e-01, 1.73701923e-02, 3.17842147e-04,
          3.35099455e-03, 9.00400504e-02, 1.94395274e-01, 1.85572609e-01,
          5.15342474e-01, 5.15342474e-01, 4.03271168e-01, 6.54905736e-02,
          3.49090666e-01, 3.96201760e-01, 1.23554736e-01, 3.03838067e-02,
          4.18544784e-02, 6.66463494e-01, 6.66463494e-01, 3.06359649e-01,
          1.48604158e-02, 1.97076797e-02, 2.96185352e-02, 7.66063407e-02,
          5.70339561e-02, 2.31370777e-02, 4.59975690e-01, 4.59975690e-01,
          5.31763025e-02, 4.13694885e-03, 1.27115217e-03, 1.78889539e-02,
          4.59975690e-01, 4.59975690e-01, 3.82006019e-01, 5.15342474e-01,
          5.15342474e-01, 4.03271168e-01, 6.54905736e-02, 3.49090666e-01,
          3.96201760e-01, 1.23554736e-01, 3.03838067e-02, 4.18544784e-02,
          6.66463494e-01, 6.66463494e-01, 3.06359649e-01, 1.48604158e-02,
          1.97076797e-02, 2.96185352e-02, 7.66063407e-02, 5.70339561e-02,
          2.31370777e-02, 4.59975690e-01, 4.59975690e-01, 5.31763025e-02,
          4.13694885e-03, 1.27115217e-03, 1.78889539e-02, 4.59975690e-01,
          4.59975690e-01, 3.82006019e-01, 6.80368125e-01, 6.80368125e-01,
          2.28230402e-01, 4.52110395e-02, 0., 6.58585131e-02,
          8.20964798e-02, 8.82398430e-03, 4.60233614e-02, 3.00413966e-01,
          6.27060115e-01, 6.27060115e-01, 1.88194424e-01, 1.02944411e-01,
          1.73123822e-01, 2.01695472e-01, 2.01539733e-02, 2.87086167e-03,
          2.54910856e-01, 4.98760074e-01, 4.98760074e-01, 1.68906599e-02,
          3.49788442e-02, 1.86118305e-01, 4.98760074e-01, 3.69227529e-01,
          1.06190331e-01, 4.13446993e-01, 4.13446993e-01, 4.13446993e-01,
          1.27210423e-01, 2.05375208e-03, 2.90678263e-01, 4.13446993e-01,
          4.13446993e-01, 2.01239049e-01, 1.38775378e-01, 6.32694364e-01,
          6.32694364e-01, 2.56191522e-01, 1.30190268e-01, 2.71365911e-01,
          9.45398286e-02, 8.77441242e-02, 3.09881605e-02, 3.25911254e-01,
          6.33085728e-01, 6.33085728e-01, 2.09138796e-01, 1.87745973e-01,
          5.26348688e-02, 4.24023010e-02, 4.43652682e-02, 1.84867028e-02 ]
      - [ 4.54046875e-01, 5.18680252e-02, 1.17403027e-02, 3.32637101e-01,
          4.54046875e-01, 3.59742910e-01, 2.48062342e-01, 2.69376308e-01,
          4.54046875e-01, 4.76109892e-01, 1.47646204e-01, 4.85829115e-02,
          4.76109892e-01, 4.76109892e-01, 2.23484397e-01, 2.11698599e-02,
          1.18190371e-01, 4.76109892e-01, 5.10128736e-01, 1.43931843e-02,
          1.12044364e-02, 3.78630400e-01, 5.10128736e-01, 2.14465857e-01,
          6.71594515e-02, 1.41462445e-01, 5.10128736e-01, 3.82259697e-01,
          2.04183444e-01, 1.97786391e-02, 3.82259697e-01, 3.82259697e-01,
          2.78143913e-01, 3.82259697e-01, 3.82259697e-01, 3.82259697e-01,
          4.15971756e-01, 2.42557183e-01, 8.08763504e-02, 4.15971756e-01,
          4.15971756e-01, 4.15971756e-01, 1.44142389e-01, 2.11021572e-01,
          4.15971756e-01, 4.83294785e-01, 1.36043206e-01, 1.10190697e-01,
          4.83294785e-01, 4.83294785e-01, 1.28775522e-01, 2.30018757e-02,
          1.14522941e-01, 4.83294785e-01, 4.38260853e-01, 3.22854161e-01,
          3.43246828e-03, 3.09776589e-02, 4.38260853e-01, 4.38260853e-01,
          2.50762790e-01, 2.43400201e-01, 4.38260853e-01, 5.05724132e-01,
          1.32509172e-01, 7.31021212e-03, 2.57707745e-01, 5.05724132e-01,
          4.56227720e-01, 6.14920184e-02, 1.12905130e-01, 4.18016165e-01,
          4.90149587e-01, 6.64917156e-02, 3.50208990e-02, 4.90149587e-01,
          4.90149587e-01, 3.65762822e-02, 1.24167791e-03, 1.64714783e-01,
          4.90149587e-01, 4.38260853e-01, 3.22854161e-01, 3.43246828e-03,
          3.09776589e-02, 4.38260853e-01, 4.38260853e-01, 2.50762790e-01,
          2.43400201e-01, 4.38260853e-01, 5.05724132e-01, 1.32509172e-01,
          7.31021212e-03, 2.57707745e-01, 5.05724132e-01, 4.56227720e-01,
          6.14920184e-02, 1.12905130e-01, 4.18016165e-01, 4.90149587e-01,
          6.64917156e-02, 3.50208990e-02, 4.90149587e-01, 4.90149587e-01,
          3.65762822e-02, 1.24167791e-03, 1.64714783e-01, 4.90149587e-01,
          4.96838391e-01, 2.87470192e-01, 6.14774600e-02, 4.01075967e-02,
          2.44244769e-01, 4.96838391e-01, 2.72006035e-01, 1.81170508e-01,
          4.96838391e-01, 6.32181883e-01, 6.21970668e-02, 9.00165085e-03,
          1.11493394e-01, 3.51719350e-01, 7.59483427e-02, 1.00179598e-01,
          1.96187124e-01, 6.32181883e-01, 7.76072204e-01, 3.18747431e-01,
          2.84134429e-02, 1.94782108e-01, 4.25896794e-01, 3.91699225e-02,
          1.38821453e-03, 2.49350388e-02, 2.57046670e-01, 4.09269005e-01,
          3.10488135e-01, 2.29902148e-01, 4.09269005e-01, 4.09269005e-01,
          4.09269005e-01, 9.39112008e-02, 1.81340650e-02, 4.09269005e-01,
          5.24213076e-01, 2.87854224e-02, 3.56807895e-02, 5.24213076e-01,
          5.24213076e-01, 2.81176418e-01, 4.60481308e-02, 8.87273520e-04,
          2.95099586e-01, 5.69365978e-01, 2.64894031e-02, 1.13835861e-03,
          1.32635579e-01, 5.69365978e-01, 5.69365978e-01, 1.47164753e-02,
          0., 5.71821667e-02, 5.10128736e-01, 1.43931843e-02,
          1.12044364e-02, 3.78630400e-01, 5.10128736e-01, 2.14465857e-01,
          6.71594515e-02, 1.41462445e-01, 5.10128736e-01, 4.95569795e-01,
          7.00621009e-02, 3.13538639e-03, 4.95569795e-01, 4.95569795e-01,
          7.81073719e-02, 3.30415703e-02, 2.41184663e-02, 4.95569795e-01,
          4.78897244e-01, 4.97525260e-02, 3.71047221e-02, 2.92409271e-01,
          4.78897244e-01, 3.81948113e-01, 1.32651567e-01, 2.33137146e-01,
          4.78897244e-01, 4.83294785e-01, 1.36043206e-01, 1.10190697e-01,
          4.83294785e-01, 4.83294785e-01, 1.28775522e-01, 2.30018757e-02,
          1.14522941e-01, 4.83294785e-01, 4.83998686e-01, 1.13225468e-01,
          1.76218078e-01, 4.83998686e-01, 4.83998686e-01, 2.28115208e-02,
          3.65033895e-02, 1.11450009e-01, 4.83998686e-01, 4.08867747e-01,
          3.56948860e-02, 1.48313239e-01, 3.45659792e-01, 4.35935110e-01,
          4.35935110e-01, 1.73554868e-01, 2.92372227e-01, 4.35935110e-01,
          4.90149587e-01, 6.64917156e-02, 3.50208990e-02, 4.90149587e-01,
          4.90149587e-01, 3.65762822e-02, 1.24167791e-03, 1.64714783e-01,
          4.90149587e-01, 4.41728503e-01, 4.41728503e-01, 1.13881081e-01,
          2.70286947e-01, 4.41728503e-01, 1.14330977e-01, 5.07373624e-02,
          3.95128220e-01, 3.90409142e-01, 3.88021201e-01, 3.29225808e-01,
          2.59382099e-01, 3.45967561e-02, 3.88021201e-01, 2.57789820e-01,
          3.88021201e-01, 3.88021201e-01, 3.88021201e-01, 4.90149587e-01,
          6.64917156e-02, 3.50208990e-02, 4.90149587e-01, 4.90149587e-01,
          3.65762822e-02, 1.24167791e-03, 1.64714783e-01, 4.90149587e-01,
          4.41728503e-01, 4.41728503e-01, 1.13881081e-01, 2.70286947e-01,
          4.41728503e-01, 1.14330977e-01, 5.07373624e-02, 3.95128220e-01,
          3.90409142e-01, 3.88021201e-01, 3.29225808e-01, 2.59382099e-01,
          3.45967561e-02, 3.88021201e-01, 2.57789820e-01, 3.88021201e-01,
          3.88021201e-01, 3.88021201e-01, 7.76072204e-01, 3.18747431e-01,
          2.84134429e-02, 1.94782108e-01, 4.25896794e-01, 3.91699225e-02,
          1.38821453e-03, 2.49350388e-02, 2.57046670e-01, 5.22158563e-01,
          5.22158563e-01, 1.87587515e-02, 2.92519927e-02, 4.07927155e-01,
          5.22158563e-01, 6.03965223e-02, 7.05922693e-02, 2.43592262e-02,
          2.69499689e-01, 2.85320729e-01, 1.72582701e-01, 5.10520376e-02,
          1.34488344e-01, 4.86953884e-01, 4.86953884e-01, 4.86953884e-01,
          2.81509936e-01, 5.69365978e-01, 2.64894031e-02, 1.13835861e-03,
          1.32635579e-01, 5.69365978e-01, 5.69365978e-01, 1.47164753e-02,
          0., 5.71821667e-02, 1.32764414e-01, 3.20584886e-02,
          6.77249255e-03, 1.67073309e-01, 6.84648991e-01, 6.84648991e-01,
          9.46287960e-02, 9.13176965e-03, 5.01160650e-03, 2.14774027e-01,
          5.64978682e-02, 1.37618154e-01, 3.19959491e-01, 3.59997511e-01,
          5.58594048e-01, 4.87836808e-01, 3.23277026e-01, 1.99175239e-01 ]
      - [ 5.78244388e-01, 5.78244388e-01, 3.80705714e-01, 1.10080443e-01,
          3.59648466e-02, 4.52303775e-02, 2.05844529e-02, 1.83614075e-01,
          3.61885488e-01, 3.85923386e-01, 3.85923386e-01, 3.85923386e-01,
          3.41114551e-01, 2.07489625e-01, 3.85923386e-01, 3.85923386e-01,
          7.89976195e-02, 2.92930990e-01, 5.22938967e-01, 2.30815440e-01,
          5.22938967e-01, 2.22553745e-01, 1.46778777e-01, 1.92478418e-01,
          9.14915279e-02, 6.79210946e-02, 5.22938967e-01, 2.52371818e-01,
          4.79439825e-01, 4.79439825e-01, 9.63676870e-02, 2.41788011e-02,
          1.44673102e-02, 4.45976369e-02, 4.79439825e-01, 4.79439825e-01,
          8.53771046e-02, 3.73135686e-01, 3.73135686e-01, 3.59644443e-01,
          1.55747280e-01, 3.73135686e-01, 3.73135686e-01, 3.73135686e-01,
          3.73135686e-01, 7.02081472e-02, 5.43488145e-01, 5.43488145e-01,
          5.43488145e-01, 5.22089936e-02, 1.68118194e-01, 1.94961578e-01,
          1.47066072e-01, 1.13478795e-01, 1.20989531e-02, 5.79244554e-01,
          5.79244554e-01, 1.26735047e-01, 2.82250457e-02, 9.98447463e-03,
          4.76807445e-01, 2.78746456e-01, 3.19091640e-02, 8.00506249e-02,
          2.37960190e-01, 4.88621145e-01, 3.13455373e-01, 1.09728016e-01,
          8.93343464e-02, 4.88621145e-01, 4.88621145e-01, 3.12345535e-01,
          1.86106712e-01, 1.60461798e-01, 5.37662625e-01, 5.37662625e-01,
          3.06211531e-01, 1.60580084e-01, 1.95427746e-01, 2.55930007e-01,
          3.64473850e-01, 1.20989531e-02, 5.79244554e-01, 5.79244554e-01,
          1.26735047e-01, 2.82250457e-02, 9.98447463e-03, 4.76807445e-01,
          2.78746456e-01, 3.19091640e-02, 8.00506249e-02, 2.37960190e-01,
          4.88621145e-01, 3.13455373e-01, 1.09728016e-01, 8.93343464e-02,
          4.88621145e-01, 4.88621145e-01, 3.12345535e-01, 1.86106712e-01,
          1.60461798e-01, 5.37662625e-01, 5.37662625e-01, 3.06211531e-01,
          1.60580084e-01, 1.95427746e-01, 2.55930007e-01, 3.64473850e-01,
          1.02715874e-02, 1.20958969e-01, 6.93856478e-01, 6.93856478e-01,
          3.87022533e-02, 1.98710728e-02, 8.72871503e-02, 7.23912269e-02,
          2.66629532e-02, 3.43481481e-01, 6.99076951e-02, 2.18112826e-01,
          3.96914959e-01, 1.00137338e-01, 2.98130587e-02, 4.60864872e-01,
          4.71168607e-01, 4.71168607e-01, 5.24991512e-01, 1.55916587e-02,
          1.47133946e-01, 4.76385713e-01, 2.42542550e-01, 1.19251169e-01,
          3.80858034e-02, 3.46686810e-01, 5.24991512e-01, 6.78910827e-03,
          6.22934774e-02, 6.72197759e-01, 6.72197759e-01, 2.85754234e-01,
          3.93518806e-02, 3.15241292e-02, 3.67084406e-02, 1.08509846e-02,
          2.65476741e-02, 1.66667532e-02, 6.96479380e-02, 7.01111257e-01,
          7.01111257e-01, 1.68901484e-03, 2.25068699e-03, 1.22897532e-02,
          6.24113232e-02, 1.05829321e-01, 1.88071225e-02, 2.15730779e-02,
          4.42569941e-01, 5.91294467e-01, 5.56788862e-01, 7.82623887e-03,
          1.57548517e-01, 3.18877727e-01, 5.22938967e-01, 2.30815440e-01,
          5.22938967e-01, 2.22553745e-01, 1.46778777e-01, 1.92478418e-01,
          9.14915279e-02, 6.79210946e-02, 5.22938967e-01, 2.40529343e-01,
          7.53176734e-02, 7.55955055e-02, 7.86932111e-02, 1.74175240e-02,
          5.22546424e-03, 1.98860466e-02, 6.77155554e-01, 6.77155554e-01,
          1.04028195e-01, 1.34114459e-01, 3.67003679e-01, 5.18677890e-01,
          1.16152570e-01, 4.27019820e-02, 9.44702551e-02, 5.18677890e-01,
          5.18677890e-01, 7.02081472e-02, 5.43488145e-01, 5.43488145e-01,
          5.43488145e-01, 5.22089936e-02, 1.68118194e-01, 1.94961578e-01,
          1.47066072e-01, 1.13478795e-01, 3.33114266e-02, 4.68650348e-02,
          2.25638896e-01, 3.21510941e-01, 5.83474897e-02, 6.34055659e-02,
          2.41036713e-01, 6.20761812e-01, 6.20761812e-01, 4.83234180e-03,
          7.79554946e-03, 1.35644019e-01, 1.84162617e-01, 2.76103504e-02,
          3.94936800e-02, 4.77552801e-01, 7.34362900e-01, 4.13041264e-01,
          1.86106712e-01, 1.60461798e-01, 5.37662625e-01, 5.37662625e-01,
          3.06211531e-01, 1.60580084e-01, 1.95427746e-01, 2.55930007e-01,
          3.64473850e-01, 6.05641045e-02, 1.55198881e-02, 3.13265294e-01,
          6.32143617e-01, 6.32143617e-01, 2.14010626e-01, 4.01320644e-02,
          1.69150800e-01, 1.28102720e-01, 4.50109504e-02, 1.15899712e-01,
          3.02564263e-01, 2.28416786e-01, 2.80468285e-01, 1.35598481e-01,
          6.06877983e-01, 6.06877983e-01, 3.33340839e-02, 1.86106712e-01,
          1.60461798e-01, 5.37662625e-01, 5.37662625e-01, 3.06211531e-01,
          1.60580084e-01, 1.95427746e-01, 2.55930007e-01, 3.64473850e-01,
          6.05641045e-02, 1.55198881e-02, 3.13265294e-01, 6.32143617e-01,
          6.32143617e-01, 2.14010626e-01, 4.01320644e-02, 1.69150800e-01,
          1.28102720e-01, 4.50109504e-02, 1.15899712e-01, 3.02564263e-01,
          2.28416786e-01, 2.80468285e-01, 1.35598481e-01, 6.06877983e-01,
          6.06877983e-01, 3.33340839e-02, 5.24991512e-01, 1.55916587e-02,
          1.47133946e-01, 4.76385713e-01, 2.42542550e-01, 1.19251169e-01,
          3.80858034e-02, 3.46686810e-01, 5.24991512e-01, 3.76869440e-01,
          3.02576989e-01, 2.88319528e-01, 3.76869440e-01, 3.76869440e-01,
          3.25146586e-01, 7.53698349e-02, 3.76869440e-01, 3.76869440e-01,
          3.37269545e-01, 3.98746520e-01, 3.98746520e-01, 3.35770756e-01,
          3.47363710e-01, 3.98746520e-01, 3.98746520e-01, 9.93995667e-02,
          5.46506271e-02, 1.05829321e-01, 1.88071225e-02, 2.15730779e-02,
          4.42569941e-01, 5.91294467e-01, 5.56788862e-01, 7.82623887e-03,
          1.57548517e-01, 3.18877727e-01, 2.09536850e-01, 1.63190678e-01,
          9.56130028e-02, 1.19714774e-01, 4.32195395e-01, 4.32195395e-01,
          4.32195395e-01, 4.32195395e-01, 3.93066227e-01, 4.17413086e-01,
          4.17413086e-01, 9.60665792e-02, 1.47275016e-01, 4.17413086e-01,
          4.17413086e-01, 4.17413086e-01, 2.95876116e-01, 7.87421465e-02 ]
      - [ 7.91084170e-02, 2.79052407e-02, 1.74700871e-01, 4.21132386e-01,
          3.99434596e-01, 4.21132386e-01, 2.98794270e-01, 4.21132386e-01,
          4.21132386e-01, 1.72637254e-02, 5.70610426e-02, 1.47242248e-01,
          1.38102248e-01, 5.95863998e-01, 5.95863998e-01, 4.82232928e-01,
          8.18658620e-02, 1.96266621e-02, 1.71825349e-01, 4.38819408e-01,
          4.38819408e-01, 4.11284983e-01, 4.38819408e-01, 4.38819408e-01,
          6.71083406e-02, 6.97181001e-02, 1.31618306e-01, 8.13477486e-02,
          8.13216195e-02, 6.05671778e-02, 2.35608429e-01, 2.03744978e-01,
          6.09903932e-01, 6.09903932e-01, 2.99495906e-01, 2.15231448e-01,
          2.34316558e-01, 4.51451004e-01, 3.62242579e-01, 1.10158809e-01,
          4.59242970e-01, 4.59242970e-01, 3.29935730e-01, 2.32254311e-01,
          9.34782401e-02, 4.90472801e-02, 6.69386685e-01, 6.69386685e-01,
          6.14943504e-02, 5.33872284e-02, 6.06757402e-02, 2.64024913e-01,
          1.13222532e-01, 4.37375493e-02, 5.29980250e-02, 1.16803236e-01,
          1.55649200e-01, 4.66813631e-02, 2.52711419e-02, 2.95844376e-01,
          6.54593050e-01, 6.54593050e-01, 7.38961920e-02, 3.91048521e-01,
          3.91048521e-01, 3.91048521e-01, 3.49888772e-01, 1.92131504e-01,
          7.66031444e-02, 2.57476121e-01, 3.91048521e-01, 3.91048521e-01,
          2.42293686e-01, 5.38684249e-01, 5.38684249e-01, 3.18214260e-02,
          1.55279608e-02, 9.18169133e-03, 1.58295810e-01, 1.97424546e-01,
          5.38684249e-01, 5.29980250e-02, 1.16803236e-01, 1.55649200e-01,
          4.66813631e-02, 2.52711419e-02, 2.95844376e-01, 6.54593050e-01,
          6.54593050e-01, 7.38961920e-02, 3.91048521e-01, 3.91048521e-01,
          3.91048521e-01, 3.49888772e-01, 1.92131504e-01, 7.66031444e-02,
          2.57476121e-01, 3.91048521e-01, 3.91048521e-01, 2.42293686e-01,
          5.38684249e-01, 5.38684249e-01, 3.18214260e-02, 1.55279608e-02,
          9.18169133e-03, 1.58295810e-01, 1.97424546e-01, 5.38684249e-01,
          1.01074791e-02, 3.18495408e-02, 1.41681924e-01, 1.54898822e-01,
          1.60303600e-02, 1.86470114e-02, 6.18449271e-01, 6.79784715e-01,
          3.20684195e-01, 1.24587953e-01, 4.56316054e-01, 4.56316054e-01,
          4.56316054e-01, 4.73739430e-02, 4.84825335e-02, 1.70283049e-01,
          4.56316054e-01, 3.36795807e-01, 4.17480290e-01, 4.17480290e-01,
          4.17480290e-01, 4.17480290e-01, 7.40672648e-02, 7.14905411e-02,
          8.29018950e-02, 3.26972574e-01, 4.17480290e-01, 7.63532426e-03,
          2.30791466e-03, 1.63900852e-02, 2.78718304e-02, 1.00564957e-02,
          2.00309113e-01, 5.63630402e-01, 5.63630402e-01, 5.63630402e-01,
          9.27462727e-02, 4.43658233e-02, 2.67181963e-01, 5.50228417e-01,
          4.25618105e-02, 3.50954756e-02, 3.53831314e-02, 5.50228417e-01,
          5.50228417e-01, 3.43371570e-01, 2.80900933e-02, 2.21918792e-01,
          5.98198235e-01, 3.04017395e-01, 1.12681679e-01, 7.68050086e-03,
          7.22558945e-02, 5.98198235e-01, 1.71825349e-01, 4.38819408e-01,
          4.38819408e-01, 4.11284983e-01, 4.38819408e-01, 4.38819408e-01,
          6.71083406e-02, 6.97181001e-02, 1.31618306e-01, 2.04362333e-01,
          2.25000471e-01, 1.52189985e-01, 3.93308580e-01, 3.93308580e-01,
          3.27202737e-01, 3.93308580e-01, 3.93308580e-01, 3.93308580e-01,
          3.88108939e-02, 3.22495848e-02, 4.14725877e-02, 5.19439459e-01,
          5.19439459e-01, 2.44269013e-01, 5.19439459e-01, 3.46965045e-01,
          3.22792567e-02, 4.90472801e-02, 6.69386685e-01, 6.69386685e-01,
          6.14943504e-02, 5.33872284e-02, 6.06757402e-02, 2.64024913e-01,
          1.13222532e-01, 4.37375493e-02, 9.84559432e-02, 2.29549915e-01,
          5.00561059e-01, 5.26266843e-02, 6.03458211e-02, 1.91271808e-02,
          5.78598857e-01, 5.78598857e-01, 7.03152120e-02, 3.83020997e-01,
          2.92353749e-01, 5.90968877e-02, 3.83020997e-01, 3.83020997e-01,
          1.64255023e-01, 3.83020997e-01, 3.83020997e-01, 3.83020997e-01,
          2.42293686e-01, 5.38684249e-01, 5.38684249e-01, 3.18214260e-02,
          1.55279608e-02, 9.18169133e-03, 1.58295810e-01, 1.97424546e-01,
          5.38684249e-01, 2.18209028e-01, 4.25155491e-01, 5.02916455e-01,
          1.07253855e-03, 6.03747275e-03, 7.68932980e-03, 5.02916455e-01,
          5.02916455e-01, 8.79395828e-02, 4.26362008e-01, 4.26362008e-01,
          2.25666940e-01, 1.70161158e-01, 6.44449964e-02, 5.27691878e-02,
          4.26362008e-01, 4.26362008e-01, 4.26362008e-01, 2.42293686e-01,
          5.38684249e-01, 5.38684249e-01, 3.18214260e-02, 1.55279608e-02,
          9.18169133e-03, 1.58295810e-01, 1.97424546e-01, 5.38684249e-01,
          2.18209028e-01, 4.25155491e-01, 5.02916455e-01, 1.07253855e-03,
          6.03747275e-03, 7.68932980e-03, 5.02916455e-01, 5.02916455e-01,
          8.79395828e-02, 4.26362008e-01, 4.26362008e-01, 2.25666940e-01,
          1.70161158e-01, 6.44449964e-02, 5.27691878e-02, 4.26362008e-01,
          4.26362008e-01, 4.26362008e-01, 4.17480290e-01, 4.17480290e-01,
          4.17480290e-01, 4.17480290e-01, 7.40672648e-02, 7.14905411e-02,
          8.29018950e-02, 3.26972574e-01, 4.17480290e-01, 4.00826514e-01,
          4.00826514e-01, 1.45037487e-01, 5.21928072e-02, 9.09087360e-02,
          4.00826514e-01, 4.00826514e-01, 4.00826514e-01, 4.00826514e-01,
          3.96954626e-01, 2.84360677e-01, 8.25361013e-02, 8.81928727e-02,
          9.40038338e-02, 4.76948351e-01, 4.76948351e-01, 4.76948351e-01,
          2.25690067e-01, 3.43371570e-01, 2.80900933e-02, 2.21918792e-01,
          5.98198235e-01, 3.04017395e-01, 1.12681679e-01, 7.68050086e-03,
          7.22558945e-02, 5.98198235e-01, 4.80281442e-01, 1.04249597e-01,
          2.75439676e-02, 3.48209858e-01, 4.80281442e-01, 4.80281442e-01,
          1.92984387e-01, 5.16660772e-02, 3.61113489e-01, 5.18679976e-01,
          4.11689460e-01, 8.51410329e-02, 2.30483226e-02, 1.74605131e-01,
          5.18679976e-01, 3.80860567e-01, 1.87893331e-01, 2.62007952e-01 ]
      - [ 4.52951908e-01, 4.52951908e-01, 4.52951908e-01, 4.46418487e-02,
          5.44708408e-02, 1.91613629e-01, 3.17245185e-01, 1.80259436e-01,
          4.52951908e-01, 4.27663475e-01, 4.27663475e-01, 1.70168027e-01,
          2.96153575e-02, 5.47628850e-02, 2.20032617e-01, 4.27663475e-01,
          4.27663475e-01, 4.27663475e-01, 5.38088679e-01, 5.38088679e-01,
          1.49152100e-01, 2.86874129e-03, 2.02500913e-03, 4.81515229e-02,
          1.86019093e-01, 2.58510470e-01, 5.38088679e-01, 7.01774538e-01,
          7.01774538e-01, 4.47435603e-02, 1.49448728e-02, 3.39896022e-03,
          3.73763964e-02, 2.67696306e-02, 2.68942732e-02, 5.42750172e-02,
          5.56783974e-01, 4.94387686e-01, 8.90395418e-03, 5.13098948e-03,
          1.42482996e-01, 5.56783974e-01, 7.65949413e-02, 5.01004830e-02,
          3.18151236e-01, 4.40830857e-01, 2.43257761e-01, 3.28149617e-01,
          5.12421355e-02, 4.06062990e-01, 4.40830857e-01, 2.59350002e-01,
          1.04734629e-01, 4.40830857e-01, 5.80271125e-01, 5.80271125e-01,
          3.74031216e-01, 1.16148882e-03, 5.87918656e-03, 1.64720938e-01,
          3.51394683e-01, 1.60886645e-01, 6.59210458e-02, 3.99865925e-01,
          3.02224666e-01, 1.92462623e-01, 9.35949311e-02, 3.56497377e-01,
          3.99865925e-01, 3.99865925e-01, 3.03648084e-01, 3.99865925e-01,
          3.72622460e-01, 3.72622460e-01, 2.83668518e-01, 2.05066875e-01,
          3.72622460e-01, 3.72622460e-01, 3.72622460e-01, 2.01673061e-01,
          3.72622460e-01, 5.80271125e-01, 5.80271125e-01, 3.74031216e-01,
          1.16148882e-03, 5.87918656e-03, 1.64720938e-01, 3.51394683e-01,
          1.60886645e-01, 6.59210458e-02, 3.99865925e-01, 3.02224666e-01,
          1.92462623e-01, 9.35949311e-02, 3.56497377e-01, 3.99865925e-01,
          3.99865925e-01, 3.03648084e-01, 3.99865925e-01, 3.72622460e-01,
          3.72622460e-01, 2.83668518e-01, 2.05066875e-01, 3.72622460e-01,
          3.72622460e-01, 3.72622460e-01, 2.01673061e-01, 3.72622460e-01,
          4.86124419e-02, 5.41756332e-01, 5.41756332e-01, 5.41756332e-01,
          4.56903912e-02, 7.32455030e-02, 2.61335105e-01, 1.65920451e-01,
          9.19179097e-02, 4.16496724e-01, 2.43385136e-01, 1.13564193e-01,
          7.51874670e-02, 4.16496724e-01, 4.16496724e-01, 4.16496724e-01,
          2.25178868e-01, 4.16496724e-01, 4.70508099e-01, 1.76956981e-01,
          4.86935824e-02, 1.95414960e-01, 4.70508099e-01, 4.70508099e-01,
          6.23352118e-02, 1.84476227e-01, 4.70508099e-01, 5.35333045e-02,
          8.56206864e-02, 6.08633935e-01, 6.08633935e-01, 3.72527063e-01,
          2.12019663e-02, 2.14037552e-01, 1.79874480e-01, 1.59570500e-01,
          1.39979869e-01, 2.81950176e-01, 3.58036846e-01, 3.58036846e-01,
          3.58036846e-01, 3.58036846e-01, 3.58036846e-01, 3.58036846e-01,
          3.58036846e-01, 4.15606827e-01, 2.32053593e-01, 1.34070247e-01,
          4.15606827e-01, 4.15606827e-01, 4.08122033e-01, 7.83885270e-02,
          2.45764196e-01, 4.15606827e-01, 5.38088679e-01, 5.38088679e-01,
          1.49152100e-01, 2.86874129e-03, 2.02500913e-03, 4.81515229e-02,
          1.86019093e-01, 2.58510470e-01, 5.38088679e-01, 4.82288331e-01,
          2.18603015e-01, 8.22303072e-02, 3.55145708e-03, 9.73630813e-04,
          1.01055644e-01, 4.82288331e-01, 4.82288331e-01, 4.82288331e-01,
          3.97872448e-01, 5.62815741e-03, 5.68945892e-04, 2.95582082e-04,
          1.63551944e-03, 1.02578301e-03, 1.22962345e-03, 6.46223009e-01,
          6.46223009e-01, 4.40830857e-01, 2.43257761e-01, 3.28149617e-01,
          5.12421355e-02, 4.06062990e-01, 4.40830857e-01, 2.59350002e-01,
          1.04734629e-01, 4.40830857e-01, 3.60301495e-01, 2.47669965e-01,
          5.46154082e-01, 1.78422511e-01, 1.72049016e-01, 1.22568011e-01,
          9.91178751e-02, 3.47184479e-01, 5.46154082e-01, 1.31645575e-01,
          1.02082985e-02, 3.81952687e-03, 8.18897877e-03, 6.05432596e-03,
          1.19416683e-03, 1.86366718e-02, 6.98257804e-01, 6.98257804e-01,
          3.72622460e-01, 3.72622460e-01, 2.83668518e-01, 2.05066875e-01,
          3.72622460e-01, 3.72622460e-01, 3.72622460e-01, 2.01673061e-01,
          3.72622460e-01, 4.10625547e-01, 4.10625547e-01, 4.10625547e-01,
          4.10625547e-01, 3.31485361e-01, 1.51568517e-01, 2.23963827e-01,
          1.39297411e-01, 3.45000833e-01, 5.44478260e-02, 1.04267940e-01,
          2.02826008e-01, 8.67290795e-02, 6.30471781e-02, 2.84882579e-02,
          4.89927918e-01, 5.86018741e-01, 5.86018741e-01, 3.72622460e-01,
          3.72622460e-01, 2.83668518e-01, 2.05066875e-01, 3.72622460e-01,
          3.72622460e-01, 3.72622460e-01, 2.01673061e-01, 3.72622460e-01,
          4.10625547e-01, 4.10625547e-01, 4.10625547e-01, 4.10625547e-01,
          3.31485361e-01, 1.51568517e-01, 2.23963827e-01, 1.39297411e-01,
          3.45000833e-01, 5.44478260e-02, 1.04267940e-01, 2.02826008e-01,
          8.67290795e-02, 6.30471781e-02, 2.84882579e-02, 4.89927918e-01,
          5.86018741e-01, 5.86018741e-01, 4.70508099e-01, 1.76956981e-01,
          4.86935824e-02, 1.95414960e-01, 4.70508099e-01, 4.70508099e-01,
          6.23352118e-02, 1.84476227e-01, 4.70508099e-01, 3.74647230e-01,
          3.74647230e-01, 3.74647230e-01, 3.74647230e-01, 3.74647230e-01,
          5.50915971e-02, 1.03431597e-01, 3.74647230e-01, 3.74647230e-01,
          5.06214574e-02, 1.14358760e-01, 4.31315541e-01, 3.30825388e-01,
          7.43264407e-02, 5.00864208e-01, 5.00864208e-01, 4.18637067e-01,
          3.69792394e-02, 4.15606827e-01, 2.32053593e-01, 1.34070247e-01,
          4.15606827e-01, 4.15606827e-01, 4.08122033e-01, 7.83885270e-02,
          2.45764196e-01, 4.15606827e-01, 3.45273167e-01, 3.45273167e-01,
          3.45273167e-01, 3.35857719e-01, 3.45273167e-01, 3.45273167e-01,
          3.45273167e-01, 3.45273167e-01, 2.21934468e-01, 2.23163351e-01,
          4.42288071e-01, 3.70058566e-01, 1.18211322e-01, 1.23789057e-01,
          5.22378683e-01, 5.22378683e-01, 1.10747285e-01, 1.58422217e-01 ]
      - [ 4.86405939e-01, 4.86405939e-01, 2.11960122e-01, 1.73674747e-02,
          9.70130488e-02, 4.86405939e-01, 3.90522957e-01, 1.35277450e-01,
          2.44788080e-01, 4.42034245e-01, 4.42034245e-01, 2.77221233e-01,
          1.70588009e-02, 1.41725406e-01, 4.42034245e-01, 4.42034245e-01,
          2.15879068e-01, 2.64905334e-01, 3.63321841e-01, 3.63321841e-01,
          2.43112117e-01, 1.15096591e-01, 3.63321841e-01, 3.63321841e-01,
          3.63321841e-01, 3.63321841e-01, 3.63321841e-01, 2.52393186e-01,
          4.57252413e-01, 4.57252413e-01, 2.60980606e-01, 4.70882654e-02,
          4.57252413e-01, 4.57252413e-01, 1.34668827e-01, 8.33515599e-02,
          2.51636833e-01, 3.68979603e-01, 3.68979603e-01, 3.68979603e-01,
          1.92331403e-01, 3.22243541e-01, 3.68979603e-01, 3.68979603e-01,
          3.33812356e-01, 3.58109444e-01, 3.58109444e-01, 3.58109444e-01,
          1.73704073e-01, 3.58109444e-01, 3.58109444e-01, 2.61825383e-01,
          3.58109444e-01, 3.58109444e-01, 3.34657341e-01, 3.74136358e-01,
          3.79543543e-01, 3.79543543e-01, 1.54446572e-01, 3.43202263e-01,
          3.79543543e-01, 3.79543543e-01, 1.62418768e-01, 4.53680754e-01,
          4.38832313e-01, 3.24627757e-01, 4.53680754e-01, 4.53680754e-01,
          1.86322480e-01, 2.04189569e-02, 1.22393958e-01, 1.72971874e-01,
          4.71549660e-01, 9.54152271e-02, 1.24998512e-02, 3.08427334e-01,
          4.71549660e-01, 4.71549660e-01, 5.33332117e-03, 3.79162915e-02,
          4.71549660e-01, 3.34657341e-01, 3.74136358e-01, 3.79543543e-01,
          3.79543543e-01, 1.54446572e-01, 3.43202263e-01, 3.79543543e-01,
          3.79543543e-01, 1.62418768e-01, 4.53680754e-01, 4.38832313e-01,
          3.24627757e-01, 4.53680754e-01, 4.53680754e-01, 1.86322480e-01,
          2.04189569e-02, 1.22393958e-01, 1.72971874e-01, 4.71549660e-01,
          9.54152271e-02, 1.24998512e-02, 3.08427334e-01, 4.71549660e-01,
          4.71549660e-01, 5.33332117e-03, 3.79162915e-02, 4.71549660e-01,
          1.14933819e-01, 4.34396595e-01, 4.34396595e-01, 3.91665787e-01,
          1.92065075e-01, 1.23626217e-01, 3.66086870e-01, 4.34396595e-01,
          2.77048379e-01, 4.13962036e-01, 4.13962036e-01, 4.13962036e-01,
          8.96096975e-02, 1.78100973e-01, 4.13962036e-01, 4.13962036e-01,
          2.94981778e-01, 1.10805005e-01, 4.90133435e-01, 8.07983428e-02,
          8.11626576e-03, 1.43475294e-01, 4.90133435e-01, 4.90133435e-01,
          1.51206017e-01, 1.22125052e-01, 4.57662761e-01, 4.80152071e-02,
          2.43452355e-01, 4.57806081e-01, 4.57806081e-01, 3.07328731e-01,
          2.37073135e-02, 2.22265478e-02, 4.57806081e-01, 4.57806081e-01,
          4.14069667e-02, 1.83080003e-01, 4.55255747e-01, 4.55255747e-01,
          2.80101240e-01, 7.64278322e-02, 2.16542885e-01, 4.55255747e-01,
          4.55255747e-01, 4.82490540e-01, 2.17089113e-02, 2.45256629e-02,
          4.18163806e-01, 4.82490540e-01, 1.14129871e-01, 6.55440390e-02,
          3.21767360e-01, 4.82490540e-01, 3.63321841e-01, 3.63321841e-01,
          2.43112117e-01, 1.15096591e-01, 3.63321841e-01, 3.63321841e-01,
          3.63321841e-01, 3.63321841e-01, 3.63321841e-01, 3.88499826e-01,
          3.88499826e-01, 3.88499826e-01, 3.88499826e-01, 2.81529397e-01,
          5.94281703e-02, 8.79516229e-02, 3.88499826e-01, 3.88499826e-01,
          5.70436083e-02, 7.63148665e-02, 2.51276314e-01, 4.76174086e-01,
          2.47967392e-01, 0., 4.25808817e-01, 4.76174086e-01,
          4.76174086e-01, 3.58109444e-01, 3.58109444e-01, 3.58109444e-01,
          1.73704073e-01, 3.58109444e-01, 3.58109444e-01, 2.61825383e-01,
          3.58109444e-01, 3.58109444e-01, 3.37139457e-01, 3.37139457e-01,
          3.37139457e-01, 3.37139457e-01, 3.37139457e-01, 3.37139457e-01,
          2.95512110e-01, 3.37139457e-01, 3.37139457e-01, 1.10661946e-01,
          3.61510098e-01, 2.79379338e-01, 1.76107138e-01, 1.30279273e-01,
          4.90938991e-01, 4.90938991e-01, 4.90938991e-01, 5.53035475e-02,
          4.71549660e-01, 9.54152271e-02, 1.24998512e-02, 3.08427334e-01,
          4.71549660e-01, 4.71549660e-01, 5.33332117e-03, 3.79162915e-02,
          4.71549660e-01, 4.33907658e-01, 4.78560887e-02, 4.79340646e-03,
          4.33907658e-01, 4.33907658e-01, 4.33907658e-01, 5.06890044e-02,
          2.22269788e-01, 4.33907658e-01, 8.93029049e-02, 7.79968500e-02,
          3.27042401e-01, 2.85751820e-01, 3.98334324e-01, 3.98334324e-01,
          3.98334324e-01, 3.98334324e-01, 3.98334324e-01, 4.71549660e-01,
          9.54152271e-02, 1.24998512e-02, 3.08427334e-01, 4.71549660e-01,
          4.71549660e-01, 5.33332117e-03, 3.79162915e-02, 4.71549660e-01,
          4.33907658e-01, 4.78560887e-02, 4.79340646e-03, 4.33907658e-01,
          4.33907658e-01, 4.33907658e-01, 5.06890044e-02, 2.22269788e-01,
          4.33907658e-01, 8.93029049e-02, 7.79968500e-02, 3.27042401e-01,
          2.85751820e-01, 3.98334324e-01, 3.98334324e-01, 3.98334324e-01,
          3.98334324e-01, 3.98334324e-01, 4.90133435e-01, 8.07983428e-02,
          8.11626576e-03, 1.43475294e-01, 4.90133435e-01, 4.90133435e-01,
          1.51206017e-01, 1.22125052e-01, 4.57662761e-01, 3.86875570e-01,
          2.25528464e-01, 3.90024632e-01, 4.16788965e-01, 4.16788965e-01,
          7.05686063e-02, 7.61918053e-02, 3.33552450e-01, 4.16788965e-01,
          1.01009548e-01, 2.14521796e-01, 4.12555635e-01, 3.05024773e-01,
          5.00828475e-02, 1.37855202e-01, 4.67032433e-01, 4.67032433e-01,
          4.67032433e-01, 4.82490540e-01, 2.17089113e-02, 2.45256629e-02,
          4.18163806e-01, 4.82490540e-01, 1.14129871e-01, 6.55440390e-02,
          3.21767360e-01, 4.82490540e-01, 4.35706377e-01, 4.35706377e-01,
          1.65389836e-01, 1.49651676e-01, 4.35706377e-01, 4.35706377e-01,
          1.59782350e-01, 2.31456663e-02, 4.00589585e-01, 4.83140141e-01,
          4.83140141e-01, 1.38218760e-01, 4.01880443e-02, 1.16219595e-01,
          4.83140141e-01, 4.83140141e-01, 1.52520120e-01, 6.31513149e-02 ]
      - [ 3.97481412e-01, 3.97481412e-01, 3.97481412e-01, 2.68342197e-01,
          2.63210475e-01, 3.97481412e-01, 3.97481412e-01, 1.49293795e-01,
          2.06144929e-01, 3.55519652e-01, 3.22833985e-01, 3.55519652e-01,
          3.55519652e-01, 3.55519652e-01, 3.55519652e-01, 3.55519652e-01,
          8.64097103e-02, 3.55519652e-01, 4.38341707e-01, 2.41976660e-02,
          1.66929677e-01, 4.84090477e-01, 2.62356043e-01, 5.00131696e-02,
          1.44101046e-02, 4.84090477e-01, 4.84090477e-01, 2.59343624e-01,
          4.01876301e-01, 4.01876301e-01, 2.31161758e-01, 1.28588587e-01,
          2.26346031e-01, 4.01876301e-01, 4.01876301e-01, 4.01876301e-01,
          6.28107935e-02, 4.24884290e-01, 4.24884290e-01, 4.24884290e-01,
          1.51776582e-01, 1.68603018e-01, 4.24884290e-01, 4.24884290e-01,
          1.94200903e-01, 1.28777340e-01, 3.93266022e-01, 4.56682116e-01,
          4.56682116e-01, 1.71062782e-01, 8.58580396e-02, 5.61691299e-02,
          4.53532517e-01, 4.01993632e-01, 1.97456200e-02, 4.81120974e-01,
          4.81120974e-01, 2.45567843e-01, 2.42024511e-02, 2.76324321e-02,
          4.81120974e-01, 4.81120974e-01, 8.51009861e-02, 9.63235795e-02,
          2.38811746e-01, 4.29049104e-01, 4.29049104e-01, 3.04938972e-01,
          4.32303175e-02, 4.29049104e-01, 4.29049104e-01, 3.13393921e-01,
          1.61502078e-01, 5.92683926e-02, 4.71632242e-01, 5.50175965e-01,
          5.50175965e-01, 1.29194424e-01, 7.60012344e-02, 1.69457540e-01,
          2.93091476e-01, 1.97456200e-02, 4.81120974e-01, 4.81120974e-01,
          2.45567843e-01, 2.42024511e-02, 2.76324321e-02, 4.81120974e-01,
          4.81120974e-01, 8.51009861e-02, 9.63235795e-02, 2.38811746e-01,
          4.29049104e-01, 4.29049104e-01, 3.04938972e-01, 4.32303175e-02,
          4.29049104e-01, 4.29049104e-01, 3.13393921e-01, 1.61502078e-01,
          5.92683926e-02, 4.71632242e-01, 5.50175965e-01, 5.50175965e-01,
          1.29194424e-01, 7.60012344e-02, 1.69457540e-01, 2.93091476e-01,
          5.24708107e-02, 1.15192324e-01, 5.46319187e-01, 5.46319187e-01,
          1.73436534e-02, 2.15564650e-02, 2.71170527e-01, 5.46319187e-01,
          9.39622968e-02, 4.70788330e-01, 2.24895515e-02, 2.03980625e-01,
          4.27916169e-01, 1.64988518e-01, 4.62378301e-02, 2.75295168e-01,
          4.70788330e-01, 4.70788330e-01, 4.46199268e-01, 3.06875184e-02,
          9.92020294e-02, 4.44308668e-01, 4.20055151e-01, 1.14950478e-01,
          2.02193279e-02, 4.46199268e-01, 4.46199268e-01, 3.69437635e-02,
          3.70421144e-03, 4.81377959e-01, 4.95663881e-01, 3.45748812e-02,
          5.06009683e-02, 1.45403996e-01, 4.95663881e-01, 4.95663881e-01,
          8.32060724e-02, 2.10880279e-03, 9.61676016e-02, 5.92731118e-01,
          5.92731118e-01, 2.25226004e-02, 2.52649803e-02, 1.95020840e-01,
          4.85866934e-01, 4.16194260e-01, 5.28021231e-02, 2.36097010e-04,
          2.92168915e-01, 5.09240687e-01, 5.09240687e-01, 4.89576198e-02,
          2.34689116e-01, 3.96759033e-01, 4.38341707e-01, 2.41976660e-02,
          1.66929677e-01, 4.84090477e-01, 2.62356043e-01, 5.00131696e-02,
          1.44101046e-02, 4.84090477e-01, 4.84090477e-01, 1.57078356e-02,
          3.66455801e-02, 1.65886804e-01, 4.70406860e-01, 2.75510609e-01,
          1.14484437e-01, 4.61879581e-01, 4.70406860e-01, 4.70406860e-01,
          2.66537756e-01, 3.56356740e-01, 3.56356740e-01, 3.56356740e-01,
          3.56356740e-01, 3.56356740e-01, 3.56356740e-01, 3.47445786e-01,
          2.06731647e-01, 1.28777340e-01, 3.93266022e-01, 4.56682116e-01,
          4.56682116e-01, 1.71062782e-01, 8.58580396e-02, 5.61691299e-02,
          4.53532517e-01, 4.01993632e-01, 2.20385585e-02, 2.37925518e-02,
          8.49062279e-02, 1.79866269e-01, 1.46542877e-01, 9.30538177e-02,
          4.99981731e-01, 6.55672789e-01, 4.92766768e-01, 1.57936350e-01,
          4.10729706e-01, 4.10729706e-01, 4.10729706e-01, 1.51221976e-01,
          2.58306235e-01, 4.10729706e-01, 4.10729706e-01, 1.94598451e-01,
          1.61502078e-01, 5.92683926e-02, 4.71632242e-01, 5.50175965e-01,
          5.50175965e-01, 1.29194424e-01, 7.60012344e-02, 1.69457540e-01,
          2.93091476e-01, 9.56694931e-02, 9.21430811e-02, 1.82984248e-01,
          4.78195429e-01, 4.78195429e-01, 1.45649880e-01, 4.78195429e-01,
          4.78195429e-01, 9.05541778e-02, 3.80796462e-01, 3.80796462e-01,
          3.80796462e-01, 3.80796462e-01, 2.50587881e-01, 4.99305949e-02,
          3.80796462e-01, 3.80796462e-01, 2.46723711e-01, 1.61502078e-01,
          5.92683926e-02, 4.71632242e-01, 5.50175965e-01, 5.50175965e-01,
          1.29194424e-01, 7.60012344e-02, 1.69457540e-01, 2.93091476e-01,
          9.56694931e-02, 9.21430811e-02, 1.82984248e-01, 4.78195429e-01,
          4.78195429e-01, 1.45649880e-01, 4.78195429e-01, 4.78195429e-01,
          9.05541778e-02, 3.80796462e-01, 3.80796462e-01, 3.80796462e-01,
          3.80796462e-01, 2.50587881e-01, 4.99305949e-02, 3.80796462e-01,
          3.80796462e-01, 2.46723711e-01, 4.46199268e-01, 3.06875184e-02,
          9.92020294e-02, 4.44308668e-01, 4.20055151e-01, 1.14950478e-01,
          2.02193279e-02, 4.46199268e-01, 4.46199268e-01, 3.38434011e-01,
          3.38434011e-01, 2.83404350e-01, 3.38434011e-01, 3.38434011e-01,
          3.38434011e-01, 3.38434011e-01, 3.38434011e-01, 3.38434011e-01,
          2.13234022e-01, 3.66702586e-01, 3.85840267e-01, 3.85840267e-01,
          3.85840267e-01, 3.85840267e-01, 3.85840267e-01, 2.60693938e-01,
          6.22974522e-02, 4.16194260e-01, 5.28021231e-02, 2.36097010e-04,
          2.92168915e-01, 5.09240687e-01, 5.09240687e-01, 4.89576198e-02,
          2.34689116e-01, 3.96759033e-01, 3.96689355e-01, 3.96689355e-01,
          3.13424096e-02, 7.83835799e-02, 3.78762990e-01, 3.96689355e-01,
          3.96689355e-01, 3.96689355e-01, 2.42151216e-01, 3.84822190e-01,
          3.92459244e-01, 4.32697743e-01, 2.05629155e-01, 8.84932727e-02,
          2.79458582e-01, 4.32697743e-01, 4.32697743e-01, 6.05957136e-02 ]
      - [ 1.88238114e-01, 3.71933848e-01, 4.25835669e-01, 2.84504026e-01,
          2.62504876e-01, 2.23073587e-01, 4.25835669e-01, 4.25835669e-01,
          2.79922396e-01, 3.77826810e-01, 1.64375186e-01, 2.35650301e-01,
          3.77826810e-01, 3.77826810e-01, 2.39074335e-01, 3.77826810e-01,
          3.77826810e-01, 3.77826810e-01, 3.69217187e-01, 1.78486213e-01,
          3.69217187e-01, 3.69217187e-01, 3.41759980e-01, 3.69217187e-01,
          1.72412515e-01, 3.69217187e-01, 3.69217187e-01, 1.68491542e-01,
          4.21817124e-01, 4.21817124e-01, 4.21817124e-01, 4.21817124e-01,
          1.71337545e-01, 3.19980621e-01, 3.18214804e-01, 1.50577188e-01,
          4.05008703e-01, 4.05008703e-01, 2.83082217e-01, 9.04238895e-02,
          2.70448685e-01, 2.56116241e-01, 4.05008703e-01, 4.05008703e-01,
          3.35820973e-01, 2.42611304e-01, 1.91415429e-01, 4.50805098e-01,
          2.25180626e-01, 1.82444960e-01, 5.57088815e-02, 4.50805098e-01,
          4.50805098e-01, 4.50805098e-01, 1.89882785e-01, 1.58066481e-01,
          3.72193187e-01, 4.37958777e-01, 4.37958777e-01, 6.06155545e-02,
          1.58591017e-01, 4.37958777e-01, 4.37958777e-01, 1.34835467e-01,
          2.78868735e-01, 4.42562580e-01, 4.42562580e-01, 4.42562580e-01,
          8.29417855e-02, 9.26976129e-02, 3.17351699e-01, 4.42562580e-01,
          3.59662980e-01, 4.29489136e-01, 4.29489136e-01, 2.12482840e-01,
          1.90725818e-01, 6.71586916e-02, 4.29489136e-01, 4.29489136e-01,
          2.06089854e-01, 1.89882785e-01, 1.58066481e-01, 3.72193187e-01,
          4.37958777e-01, 4.37958777e-01, 6.06155545e-02, 1.58591017e-01,
          4.37958777e-01, 4.37958777e-01, 1.34835467e-01, 2.78868735e-01,
          4.42562580e-01, 4.42562580e-01, 4.42562580e-01, 8.29417855e-02,
          9.26976129e-02, 3.17351699e-01, 4.42562580e-01, 3.59662980e-01,
          4.29489136e-01, 4.29489136e-01, 2.12482840e-01, 1.90725818e-01,
          6.71586916e-02, 4.29489136e-01, 4.29489136e-01, 2.06089854e-01,
          4.86681461e-01, 2.97178388e-01, 1.27913937e-01, 1.63171038e-01,
          3.09575409e-01, 1.12046070e-01, 2.11824089e-01, 4.86681461e-01,
          4.86681461e-01, 1.18099347e-01, 1.15128681e-01, 4.68265623e-01,
          4.68265623e-01, 1.11076586e-01, 8.08434188e-02, 2.68619269e-01,
          4.68265623e-01, 4.68265623e-01, 1.60316288e-01, 1.13182724e-01,
          4.09537524e-01, 4.09537524e-01, 4.09537524e-01, 2.88114667e-01,
          4.09537524e-01, 4.09537524e-01, 1.89162582e-01, 2.63053983e-01,
          3.18326533e-01, 4.79985684e-01, 4.79985684e-01, 4.79985684e-01,
          1.73886687e-01, 6.53015524e-02, 1.46293476e-01, 2.78595418e-01,
          1.86466351e-01, 2.89430320e-01, 2.47667521e-01, 3.56444687e-01,
          3.22937042e-01, 2.94348031e-01, 4.72914428e-01, 4.72914428e-01,
          2.23873988e-01, 3.81738931e-01, 2.30850518e-01, 1.49147555e-01,
          3.81738931e-01, 3.81738931e-01, 3.81738931e-01, 3.09403777e-01,
          3.10315162e-01, 3.81738931e-01, 3.69217187e-01, 1.78486213e-01,
          3.69217187e-01, 3.69217187e-01, 3.41759980e-01, 3.69217187e-01,
          1.72412515e-01, 3.69217187e-01, 3.69217187e-01, 1.09790333e-01,
          3.47310811e-01, 4.99494374e-01, 4.99494374e-01, 6.32333159e-02,
          1.92406088e-01, 9.51612964e-02, 4.99494374e-01, 2.52536118e-01,
          1.81077972e-01, 1.77094117e-01, 9.68459100e-02, 5.31693436e-02,
          2.80985177e-01, 4.70185190e-01, 4.70185190e-01, 4.70185190e-01,
          4.20441419e-01, 2.42611304e-01, 1.91415429e-01, 4.50805098e-01,
          2.25180626e-01, 1.82444960e-01, 5.57088815e-02, 4.50805098e-01,
          4.50805098e-01, 4.50805098e-01, 1.66567639e-02, 7.78056085e-02,
          4.94114697e-01, 4.94114697e-01, 2.49060974e-01, 1.09688684e-01,
          3.28380674e-01, 4.94114697e-01, 2.72743464e-01, 1.45211630e-02,
          1.47319034e-01, 4.35462415e-01, 4.42578524e-01, 4.42578524e-01,
          4.42578524e-01, 4.42578524e-01, 2.28470117e-02, 3.59209627e-03,
          3.59662980e-01, 4.29489136e-01, 4.29489136e-01, 2.12482840e-01,
          1.90725818e-01, 6.71586916e-02, 4.29489136e-01, 4.29489136e-01,
          2.06089854e-01, 3.95162165e-01, 4.01714712e-01, 2.50055492e-01,
          2.75907516e-01, 4.01714712e-01, 2.05852076e-01, 4.01714712e-01,
          4.01714712e-01, 1.15356170e-01, 3.68942559e-01, 2.94754446e-01,
          3.68942559e-01, 3.63867521e-01, 3.68942559e-01, 2.78330505e-01,
          1.37744084e-01, 3.68942559e-01, 3.68942559e-01, 3.59662980e-01,
          4.29489136e-01, 4.29489136e-01, 2.12482840e-01, 1.90725818e-01,
          6.71586916e-02, 4.29489136e-01, 4.29489136e-01, 2.06089854e-01,
          3.95162165e-01, 4.01714712e-01, 2.50055492e-01, 2.75907516e-01,
          4.01714712e-01, 2.05852076e-01, 4.01714712e-01, 4.01714712e-01,
          1.15356170e-01, 3.68942559e-01, 2.94754446e-01, 3.68942559e-01,
          3.63867521e-01, 3.68942559e-01, 2.78330505e-01, 1.37744084e-01,
          3.68942559e-01, 3.68942559e-01, 1.60316288e-01, 1.13182724e-01,
          4.09537524e-01, 4.09537524e-01, 4.09537524e-01, 2.88114667e-01,
          4.09537524e-01, 4.09537524e-01, 1.89162582e-01, 1.87882245e-01,
          4.71223116e-01, 4.71223116e-01, 1.16898445e-02, 8.80992040e-02,
          3.23947221e-01, 4.71223116e-01, 4.13483053e-01, 1.00158446e-01,
          3.48131955e-01, 3.48131955e-01, 3.48131955e-01, 1.89820454e-01,
          3.48131955e-01, 3.34842056e-01, 3.48131955e-01, 3.48131955e-01,
          3.48131955e-01, 3.81738931e-01, 2.30850518e-01, 1.49147555e-01,
          3.81738931e-01, 3.81738931e-01, 3.81738931e-01, 3.09403777e-01,
          3.10315162e-01, 3.81738931e-01, 2.08989859e-01, 3.74543101e-01,
          3.74543101e-01, 2.40993872e-01, 3.74543101e-01, 3.74543101e-01,
          3.74543101e-01, 2.29800358e-01, 3.74543101e-01, 3.54598969e-01,
          3.54598969e-01, 3.54598969e-01, 2.39326194e-01, 3.20029527e-01,
          3.54598969e-01, 3.54598969e-01, 3.11111152e-01, 3.33570093e-01 ]
      - [ 4.38152552e-01, 4.38152552e-01, 5.30840941e-02, 6.06676680e-04,
          1.04441084e-02, 4.38152552e-01, 4.38152552e-01, 4.38152552e-01,
          1.81128740e-01, 5.12526691e-01, 5.12526691e-01, 4.90791388e-02,
          2.52283644e-03, 6.31569996e-02, 3.57805789e-01, 1.36463121e-01,
          4.03839588e-01, 3.91633481e-01, 2.07768872e-01, 1.22637495e-01,
          8.44048038e-02, 2.36264896e-02, 3.17744404e-01, 9.68815014e-02,
          1.40219241e-01, 6.31583393e-01, 6.31583393e-01, 2.76134729e-01,
          4.47835654e-01, 4.47835654e-01, 1.76329687e-01, 2.55014926e-01,
          4.47835654e-01, 4.47835654e-01, 1.37209490e-01, 4.58039418e-02,
          3.16160470e-01, 3.84389460e-01, 3.84389460e-01, 3.56152266e-01,
          3.84389460e-01, 3.84389460e-01, 3.84389460e-01, 1.68480322e-01,
          4.68623489e-02, 6.10835776e-02, 1.86638422e-02, 1.06712513e-01,
          4.65907484e-01, 3.86564791e-01, 2.97969997e-01, 4.65907484e-01,
          4.65907484e-01, 3.00751448e-01, 7.22473711e-02, 4.19562787e-01,
          4.19562787e-01, 2.79144049e-01, 4.19562787e-01, 4.19562787e-01,
          4.19562787e-01, 1.74230665e-01, 4.63351607e-02, 3.46104009e-03,
          5.26455522e-01, 5.26455522e-01, 7.27626979e-02, 1.68164298e-01,
          2.13676438e-01, 5.26455522e-01, 2.89013028e-01, 2.24586744e-02,
          1.81093529e-01, 1.65486522e-02, 1.55933291e-01, 4.64341372e-01,
          4.36903805e-01, 2.29644403e-01, 4.64341372e-01, 4.64341372e-01,
          2.17986137e-01, 7.22473711e-02, 4.19562787e-01, 4.19562787e-01,
          2.79144049e-01, 4.19562787e-01, 4.19562787e-01, 4.19562787e-01,
          1.74230665e-01, 4.63351607e-02, 3.46104009e-03, 5.26455522e-01,
          5.26455522e-01, 7.27626979e-02, 1.68164298e-01, 2.13676438e-01,
          5.26455522e-01, 2.89013028e-01, 2.24586744e-02, 1.81093529e-01,
          1.65486522e-02, 1.55933291e-01, 4.64341372e-01, 4.36903805e-01,
          2.29644403e-01, 4.64341372e-01, 4.64341372e-01, 2.17986137e-01,
          3.54402401e-02, 4.72322315e-01, 4.72322315e-01, 2.76402801e-01,
          6.65450618e-02, 8.71952549e-02, 4.72322315e-01, 4.72322315e-01,
          1.15078792e-01, 6.50791749e-02, 4.40178871e-01, 4.40178871e-01,
          4.40178871e-01, 4.40178871e-01, 1.78021230e-02, 3.51077229e-01,
          2.49453008e-01, 1.74754247e-01, 4.82146174e-01, 8.47096834e-03,
          1.60370618e-02, 6.50853440e-02, 4.82146174e-01, 4.49269302e-02,
          4.03696299e-01, 3.58099610e-01, 4.82146174e-01, 4.97094654e-02,
          6.82482570e-02, 3.98810267e-01, 3.98810267e-01, 2.96634316e-01,
          3.25033903e-01, 3.98810267e-01, 3.98810267e-01, 3.98810267e-01,
          1.08926140e-01, 9.11704376e-02, 4.90419149e-01, 5.51496208e-01,
          5.51496208e-01, 6.34485707e-02, 5.18758893e-02, 2.01436847e-01,
          2.79669434e-01, 1.11443199e-01, 3.10641364e-03, 8.16968642e-03,
          1.75053716e-01, 9.46705639e-01, 1.90513015e-01, 3.62111926e-02,
          1.24294339e-02, 1.15771212e-01, 2.07768872e-01, 1.22637495e-01,
          8.44048038e-02, 2.36264896e-02, 3.17744404e-01, 9.68815014e-02,
          1.40219241e-01, 6.31583393e-01, 6.31583393e-01, 1.14674732e-01,
          1.06427290e-01, 2.00209454e-01, 4.40812647e-01, 4.40812647e-01,
          1.25042319e-01, 4.40812647e-01, 4.40812647e-01, 3.71668249e-01,
          1.39383018e-01, 1.48790836e-01, 2.97538280e-01, 4.71419632e-01,
          4.71419632e-01, 8.92069936e-02, 9.90524888e-02, 4.30265516e-01,
          4.66717631e-01, 6.10835776e-02, 1.86638422e-02, 1.06712513e-01,
          4.65907484e-01, 3.86564791e-01, 2.97969997e-01, 4.65907484e-01,
          4.65907484e-01, 3.00751448e-01, 4.39647660e-02, 1.50886942e-02,
          9.64510590e-02, 1.76435709e-01, 1.56355575e-01, 2.17745885e-01,
          6.43495560e-01, 6.43495560e-01, 2.25719213e-01, 8.22631121e-02,
          1.02140479e-01, 4.54052031e-01, 4.54052031e-01, 4.54052031e-01,
          3.56181115e-01, 3.91444445e-01, 2.44983569e-01, 1.40229002e-01,
          1.81093529e-01, 1.65486522e-02, 1.55933291e-01, 4.64341372e-01,
          4.36903805e-01, 2.29644403e-01, 4.64341372e-01, 4.64341372e-01,
          2.17986137e-01, 4.57829714e-01, 1.28865112e-02, 8.87187719e-02,
          2.30439246e-01, 3.65156740e-01, 3.23807001e-01, 4.57829714e-01,
          2.59370744e-01, 4.57829714e-01, 6.41680658e-01, 8.62052292e-02,
          1.62721053e-01, 1.40804321e-01, 2.51879096e-01, 9.60165039e-02,
          1.54822409e-01, 1.40420601e-01, 6.41680658e-01, 1.81093529e-01,
          1.65486522e-02, 1.55933291e-01, 4.64341372e-01, 4.36903805e-01,
          2.29644403e-01, 4.64341372e-01, 4.64341372e-01, 2.17986137e-01,
          4.57829714e-01, 1.28865112e-02, 8.87187719e-02, 2.30439246e-01,
          3.65156740e-01, 3.23807001e-01, 4.57829714e-01, 2.59370744e-01,
          4.57829714e-01, 6.41680658e-01, 8.62052292e-02, 1.62721053e-01,
          1.40804321e-01, 2.51879096e-01, 9.60165039e-02, 1.54822409e-01,
          1.40420601e-01, 6.41680658e-01, 4.82146174e-01, 8.47096834e-03,
          1.60370618e-02, 6.50853440e-02, 4.82146174e-01, 4.49269302e-02,
          4.03696299e-01, 3.58099610e-01, 4.82146174e-01, 5.74176371e-01,
          6.47506153e-04, 2.03604577e-03, 2.14619450e-02, 5.74176371e-01,
          6.85161948e-02, 6.67671673e-03, 5.17793279e-03, 5.74176371e-01,
          5.32009542e-01, 2.94295349e-03, 7.00734695e-03, 2.32682712e-02,
          5.32009542e-01, 1.86120659e-01, 2.52860576e-01, 2.15420678e-01,
          5.32009542e-01, 1.11443199e-01, 3.10641364e-03, 8.16968642e-03,
          1.75053716e-01, 9.46705639e-01, 1.90513015e-01, 3.62111926e-02,
          1.24294339e-02, 1.15771212e-01, 2.37018481e-01, 5.34032732e-02,
          1.24795362e-02, 6.99628517e-02, 9.25194561e-01, 2.34184533e-01,
          9.14429501e-03, 3.15954862e-03, 1.25571370e-01, 5.14400661e-01,
          5.14400661e-01, 4.76382114e-02, 7.93667436e-02, 5.14400661e-01,
          3.90058905e-01, 1.46212876e-01, 3.86377200e-02, 1.32110447e-01 ]
      - [ 3.77339572e-01, 3.74295801e-01, 3.77339572e-01, 3.77339572e-01,
          1.40054300e-01, 1.43195510e-01, 3.22624832e-01, 3.77339572e-01,
          3.77339572e-01, 2.06082657e-01, 2.24027738e-01, 1.75988808e-01,
          1.53640658e-01, 3.96875620e-01, 4.16807264e-01, 4.16807264e-01,
          4.16807264e-01, 4.12195563e-01, 4.21449155e-01, 4.21449155e-01,
          1.70281067e-01, 1.43844828e-01, 4.21449155e-01, 4.21449155e-01,
          2.15859354e-01, 2.44345799e-01, 3.59618485e-01, 3.33213657e-01,
          4.07429546e-01, 4.07429546e-01, 4.07429546e-01, 1.64973140e-01,
          3.01880315e-02, 1.63636029e-01, 4.07429546e-01, 4.07429546e-01,
          1.24251395e-01, 2.26013869e-01, 5.30451596e-01, 1.30695581e-01,
          4.77610379e-02, 1.95071325e-01, 5.40233672e-01, 5.40233672e-01,
          7.47352913e-02, 4.37880129e-01, 4.37880129e-01, 4.37880129e-01,
          2.44124591e-01, 4.25856225e-02, 1.04189999e-01, 4.37880129e-01,
          3.54611248e-01, 1.75085440e-01, 1.47901043e-01, 6.88898414e-02,
          4.28008229e-01, 4.28008229e-01, 4.28008229e-01, 2.12273940e-01,
          8.99357349e-02, 4.28008229e-01, 4.28008229e-01, 2.64933467e-01,
          6.68303892e-02, 3.33849639e-01, 1.63930148e-01, 4.36389744e-01,
          4.36389744e-01, 4.36389744e-01, 3.86630863e-01, 2.48726144e-01,
          1.14650585e-01, 3.43702406e-01, 5.22737145e-01, 4.96871442e-01,
          1.47464275e-01, 1.14699811e-01, 5.22737145e-01, 1.73538893e-01,
          7.13898614e-02, 1.47901043e-01, 6.88898414e-02, 4.28008229e-01,
          4.28008229e-01, 4.28008229e-01, 2.12273940e-01, 8.99357349e-02,
          4.28008229e-01, 4.28008229e-01, 2.64933467e-01, 6.68303892e-02,
          3.33849639e-01, 1.63930148e-01, 4.36389744e-01, 4.36389744e-01,
          4.36389744e-01, 3.86630863e-01, 2.48726144e-01, 1.14650585e-01,
          3.43702406e-01, 5.22737145e-01, 4.96871442e-01, 1.47464275e-01,
          1.14699811e-01, 5.22737145e-01, 1.73538893e-01, 7.13898614e-02,
          3.93061250e-01, 8.67971405e-03, 1.03103546e-02, 2.70392060e-01,
          4.23777550e-01, 2.22769603e-01, 4.23777550e-01, 4.23777550e-01,
          4.23777550e-01, 4.85538214e-01, 6.73806742e-02, 1.41937882e-01,
          1.13389559e-01, 4.85538214e-01, 3.50126356e-01, 1.28548995e-01,
          3.33543718e-01, 4.85538214e-01, 1.74070448e-01, 1.91171557e-01,
          4.75632519e-01, 4.75632519e-01, 1.34254500e-01, 4.17282321e-02,
          6.10871390e-02, 4.75632519e-01, 4.75632519e-01, 1.51196420e-01,
          4.84201647e-02, 9.46778059e-02, 1.77267089e-01, 4.72120970e-01,
          4.48729604e-01, 4.93178368e-01, 4.93178368e-01, 1.37024418e-01,
          4.03303444e-01, 4.03251618e-01, 2.77144492e-01, 3.54650944e-01,
          1.99316561e-01, 2.37523645e-01, 2.16025934e-01, 4.03303444e-01,
          4.03303444e-01, 5.03162965e-02, 1.21025965e-01, 3.44721287e-01,
          5.28000176e-01, 1.00045025e-01, 8.52868855e-02, 7.12733343e-02,
          5.28000176e-01, 5.28000176e-01, 4.21449155e-01, 4.21449155e-01,
          1.70281067e-01, 1.43844828e-01, 4.21449155e-01, 4.21449155e-01,
          2.15859354e-01, 2.44345799e-01, 3.59618485e-01, 3.93497497e-01,
          1.17882751e-01, 3.59581977e-01, 3.93497497e-01, 2.29542837e-01,
          3.93497497e-01, 1.61189169e-01, 3.93497497e-01, 3.93497497e-01,
          3.90640795e-01, 3.23366672e-01, 4.41113144e-01, 4.41113144e-01,
          3.29348817e-02, 1.71780121e-02, 6.19424991e-02, 4.06012267e-01,
          4.23323989e-01, 4.37880129e-01, 4.37880129e-01, 4.37880129e-01,
          2.44124591e-01, 4.25856225e-02, 1.04189999e-01, 4.37880129e-01,
          3.54611248e-01, 1.75085440e-01, 3.91375899e-01, 3.68710607e-02,
          2.23660216e-01, 1.86390236e-01, 1.31928280e-01, 1.38992086e-01,
          2.09206671e-01, 5.80693722e-01, 5.80693722e-01, 1.55629972e-02,
          1.99701991e-02, 4.96861458e-01, 4.96861458e-01, 1.70841031e-02,
          2.38930248e-02, 7.77722299e-02, 4.96861458e-01, 4.96861458e-01,
          1.14650585e-01, 3.43702406e-01, 5.22737145e-01, 4.96871442e-01,
          1.47464275e-01, 1.14699811e-01, 5.22737145e-01, 1.73538893e-01,
          7.13898614e-02, 2.71714687e-01, 1.47499099e-01, 3.80793393e-01,
          3.49028379e-01, 3.11005950e-01, 1.50865331e-01, 3.58518600e-01,
          4.53223377e-01, 4.23829645e-01, 5.09192459e-02, 1.29132336e-02,
          9.96190682e-02, 3.54583979e-01, 1.90286666e-01, 1.42766759e-01,
          3.84090751e-01, 6.00005865e-01, 5.39881051e-01, 1.14650585e-01,
          3.43702406e-01, 5.22737145e-01, 4.96871442e-01, 1.47464275e-01,
          1.14699811e-01, 5.22737145e-01, 1.73538893e-01, 7.13898614e-02,
          2.71714687e-01, 1.47499099e-01, 3.80793393e-01, 3.49028379e-01,
          3.11005950e-01, 1.50865331e-01, 3.58518600e-01, 4.53223377e-01,
          4.23829645e-01, 5.09192459e-02, 1.29132336e-02, 9.96190682e-02,
          3.54583979e-01, 1.90286666e-01, 1.42766759e-01, 3.84090751e-01,
          6.00005865e-01, 5.39881051e-01, 1.74070448e-01, 1.91171557e-01,
          4.75632519e-01, 4.75632519e-01, 1.34254500e-01, 4.17282321e-02,
          6.10871390e-02, 4.75632519e-01, 4.75632519e-01, 1.68127999e-01,
          2.73106694e-01, 5.13673842e-01, 5.13673842e-01, 1.26636535e-01,
          1.44346669e-01, 3.83415014e-01, 3.84614825e-01, 1.80237383e-01,
          1.09857708e-01, 3.81498411e-02, 3.05076614e-02, 1.02435630e-02,
          2.08213553e-01, 3.86568159e-01, 5.12359083e-01, 5.12359083e-01,
          5.12359083e-01, 5.03162965e-02, 1.21025965e-01, 3.44721287e-01,
          5.28000176e-01, 1.00045025e-01, 8.52868855e-02, 7.12733343e-02,
          5.28000176e-01, 5.28000176e-01, 3.10082696e-02, 3.70867327e-02,
          4.89463419e-01, 4.89463419e-01, 1.74949244e-01, 7.53269196e-02,
          6.99961111e-02, 4.89463419e-01, 4.82566386e-01, 1.35260671e-01,
          7.94294849e-02, 1.10783122e-01, 4.19559777e-01, 4.39104170e-01,
          4.39104170e-01, 4.39104170e-01, 4.08924669e-01, 1.92481935e-01 ]
      - [ 3.84261221e-01, 1.58869311e-01, 7.17260242e-02, 3.84261221e-01,
          3.84261221e-01, 3.84261221e-01, 3.24713737e-01, 3.49363148e-01,
          3.84261221e-01, 4.20644581e-01, 3.50730240e-01, 6.32527247e-02,
          4.20644581e-01, 4.20644581e-01, 2.46831402e-01, 1.72693785e-02,
          3.15901577e-01, 4.20644581e-01, 4.55806732e-01, 3.35153975e-02,
          4.98693064e-03, 4.50797707e-01, 4.55806732e-01, 3.63518924e-01,
          7.64735863e-02, 1.72646597e-01, 4.55806732e-01, 4.10803139e-01,
          1.13276899e-01, 1.30285382e-01, 4.10803139e-01, 4.10803139e-01,
          2.64475226e-01, 2.28794843e-01, 4.10803139e-01, 4.10803139e-01,
          4.15043741e-01, 1.30725771e-01, 9.58014578e-02, 4.15043741e-01,
          4.15043741e-01, 4.15043741e-01, 2.37357408e-01, 2.27907151e-01,
          4.15043741e-01, 4.85798448e-01, 8.31979513e-02, 1.35233700e-01,
          4.85798448e-01, 4.85798448e-01, 1.26107544e-01, 3.54400277e-02,
          9.36917812e-02, 4.85798448e-01, 4.09993172e-01, 2.70404130e-01,
          3.49359028e-02, 3.56549025e-02, 4.09993172e-01, 4.09993172e-01,
          2.82528013e-01, 4.09993172e-01, 4.09993172e-01, 4.94555533e-01,
          1.38081416e-01, 3.57353836e-02, 3.09928179e-01, 4.94555533e-01,
          3.50787103e-01, 7.58028403e-02, 1.26918927e-01, 4.94555533e-01,
          4.74349320e-01, 4.73625511e-02, 7.31204525e-02, 4.74349320e-01,
          4.74349320e-01, 1.26888201e-01, 1.97997205e-02, 2.66740680e-01,
          4.74349320e-01, 4.09993172e-01, 2.70404130e-01, 3.49359028e-02,
          3.56549025e-02, 4.09993172e-01, 4.09993172e-01, 2.82528013e-01,
          4.09993172e-01, 4.09993172e-01, 4.94555533e-01, 1.38081416e-01,
          3.57353836e-02, 3.09928179e-01, 4.94555533e-01, 3.50787103e-01,
          7.58028403e-02, 1.26918927e-01, 4.94555533e-01, 4.74349320e-01,
          4.73625511e-02, 7.31204525e-02, 4.74349320e-01, 4.74349320e-01,
          1.26888201e-01, 1.97997205e-02, 2.66740680e-01, 4.74349320e-01,
          4.45944458e-01, 2.88916707e-01, 6.74052909e-02, 2.74364185e-02,
          4.45944458e-01, 4.45944458e-01, 2.79081434e-01, 1.82822376e-01,
          4.45944458e-01, 5.29278278e-01, 1.07377194e-01, 4.80706841e-02,
          2.52469927e-01, 5.29278278e-01, 2.11056620e-01, 1.61170274e-01,
          7.87741318e-02, 5.29278278e-01, 7.00936735e-01, 4.82287019e-01,
          4.60847951e-02, 2.66985506e-01, 3.88608009e-01, 5.74354008e-02,
          1.69474799e-02, 7.15584727e-03, 2.02562064e-01, 4.44506019e-01,
          4.44506019e-01, 2.55746573e-01, 3.18649203e-01, 4.44506019e-01,
          1.88307509e-01, 1.97800044e-02, 4.92214300e-02, 4.44506019e-01,
          5.33710659e-01, 1.43447950e-01, 1.16793141e-01, 2.62019068e-01,
          5.33710659e-01, 1.92195058e-01, 1.44829750e-02, 1.04045905e-02,
          5.33710659e-01, 5.60153425e-01, 9.79251266e-02, 6.04567770e-03,
          1.80606768e-01, 5.60153425e-01, 5.60153425e-01, 2.21992899e-02,
          4.99044661e-04, 1.01750612e-01, 4.55806732e-01, 3.35153975e-02,
          4.98693064e-03, 4.50797707e-01, 4.55806732e-01, 3.63518924e-01,
          7.64735863e-02, 1.72646597e-01, 4.55806732e-01, 4.91951674e-01,
          8.19605961e-02, 7.45922029e-02, 4.91951674e-01, 4.91951674e-01,
          1.13397337e-01, 2.58799866e-02, 3.47937010e-02, 4.91951674e-01,
          4.12921369e-01, 6.39460087e-02, 7.74055347e-02, 2.68036872e-01,
          4.92724985e-01, 4.40011054e-01, 1.25694036e-01, 2.18370795e-01,
          4.92724985e-01, 4.85798448e-01, 8.31979513e-02, 1.35233700e-01,
          4.85798448e-01, 4.85798448e-01, 1.26107544e-01, 3.54400277e-02,
          9.36917812e-02, 4.85798448e-01, 4.80628818e-01, 1.44956455e-01,
          2.16488272e-01, 4.80628818e-01, 4.80628818e-01, 3.47284339e-02,
          3.28851826e-02, 3.18785794e-02, 4.80628818e-01, 4.10676241e-01,
          9.52396095e-02, 1.87558755e-01, 2.47660637e-01, 4.60600704e-01,
          4.40686375e-01, 1.64449543e-01, 2.74964690e-01, 4.60600704e-01,
          4.74349320e-01, 4.73625511e-02, 7.31204525e-02, 4.74349320e-01,
          4.74349320e-01, 1.26888201e-01, 1.97997205e-02, 2.66740680e-01,
          4.74349320e-01, 3.99119586e-01, 3.99119586e-01, 1.27590343e-01,
          3.99119586e-01, 3.99119586e-01, 5.60367852e-02, 1.44272968e-01,
          3.99119586e-01, 3.99119586e-01, 2.45009512e-01, 3.06327403e-01,
          2.98593253e-01, 1.22543104e-01, 3.84218901e-01, 3.84218901e-01,
          3.84218901e-01, 3.84218901e-01, 3.84218901e-01, 4.74349320e-01,
          4.73625511e-02, 7.31204525e-02, 4.74349320e-01, 4.74349320e-01,
          1.26888201e-01, 1.97997205e-02, 2.66740680e-01, 4.74349320e-01,
          3.99119586e-01, 3.99119586e-01, 1.27590343e-01, 3.99119586e-01,
          3.99119586e-01, 5.60367852e-02, 1.44272968e-01, 3.99119586e-01,
          3.99119586e-01, 2.45009512e-01, 3.06327403e-01, 2.98593253e-01,
          1.22543104e-01, 3.84218901e-01, 3.84218901e-01, 3.84218901e-01,
          3.84218901e-01, 3.84218901e-01, 7.00936735e-01, 4.82287019e-01,
          4.60847951e-02, 2.66985506e-01, 3.88608009e-01, 5.74354008e-02,
          1.69474799e-02, 7.15584727e-03, 2.02562064e-01, 5.41506886e-01,
          5.41506886e-01, 2.54667085e-02, 1.03407077e-01, 2.34781832e-01,
          5.41506886e-01, 1.27882361e-01, 1.29820377e-01, 1.23417914e-01,
          1.91006795e-01, 3.88244361e-01, 1.85004398e-01, 4.79266383e-02,
          1.39941037e-01, 4.33688700e-01, 4.33688700e-01, 4.33688700e-01,
          4.33688700e-01, 5.60153425e-01, 9.79251266e-02, 6.04567770e-03,
          1.80606768e-01, 5.60153425e-01, 5.60153425e-01, 2.21992899e-02,
          4.99044661e-04, 1.01750612e-01, 2.90769279e-01, 9.56686065e-02,
          7.25538051e-03, 9.67920572e-02, 6.64816082e-01, 6.64816082e-01,
          7.68080354e-02, 9.31706838e-03, 1.71796251e-02, 8.16823915e-02,
          4.25846204e-02, 1.74065799e-01, 1.83842510e-01, 2.42693678e-01,
          6.08142853e-01, 6.08142853e-01, 2.98858315e-01, 1.82902724e-01 ]
      - [ 4.64627236e-01, 4.64627236e-01, 2.22337008e-01, 2.39604786e-02,
          1.11809991e-01, 4.64627236e-01, 4.64627236e-01, 1.50964752e-01,
          2.15744212e-01, 4.74990427e-01, 4.74990427e-01, 3.38537544e-01,
          1.10932905e-02, 1.24980271e-01, 4.74990427e-01, 3.00491929e-01,
          1.82164580e-01, 2.54121751e-01, 3.73560399e-01, 3.70645255e-01,
          1.40091866e-01, 4.44971025e-02, 3.73560399e-01, 3.73560399e-01,
          3.73560399e-01, 3.73560399e-01, 3.73560399e-01, 2.78154969e-01,
          4.67589378e-01, 4.67589378e-01, 1.18080534e-01, 7.50712976e-02,
          4.67589378e-01, 4.67589378e-01, 9.27184075e-02, 1.23388469e-01,
          2.10043222e-01, 3.86401206e-01, 3.86401206e-01, 3.86401206e-01,
          1.27870813e-01, 3.31491798e-01, 3.86401206e-01, 3.86401206e-01,
          2.81521291e-01, 3.64306390e-01, 3.64306390e-01, 2.57897854e-01,
          2.29670048e-01, 3.64306390e-01, 3.64306390e-01, 2.84228593e-01,
          3.64306390e-01, 3.64306390e-01, 2.41957873e-01, 3.29419792e-01,
          4.30544615e-01, 1.94638014e-01, 1.75575867e-01, 4.30544615e-01,
          4.30544615e-01, 4.30544615e-01, 1.35840520e-01, 4.37882096e-01,
          4.37882096e-01, 4.37882096e-01, 4.37882096e-01, 4.37882096e-01,
          4.22483087e-02, 3.64457369e-02, 1.25741526e-01, 1.34157419e-01,
          4.45521027e-01, 1.86940730e-01, 1.59109328e-02, 4.03023988e-01,
          4.45521027e-01, 4.45521027e-01, 2.88386960e-02, 5.59812225e-02,
          4.45521027e-01, 2.41957873e-01, 3.29419792e-01, 4.30544615e-01,
          1.94638014e-01, 1.75575867e-01, 4.30544615e-01, 4.30544615e-01,
          4.30544615e-01, 1.35840520e-01, 4.37882096e-01, 4.37882096e-01,
          4.37882096e-01, 4.37882096e-01, 4.37882096e-01, 4.22483087e-02,
          3.64457369e-02, 1.25741526e-01, 1.34157419e-01, 4.45521027e-01,
          1.86940730e-01, 1.59109328e-02, 4.03023988e-01, 4.45521027e-01,
          4.45521027e-01, 2.88386960e-02, 5.59812225e-02, 4.45521027e-01,
          1.53552085e-01, 4.32999283e-01, 4.32999283e-01, 4.32999283e-01,
          2.54621208e-01, 2.08614860e-02, 2.05105543e-01, 4.32999283e-01,
          3.38832468e-01, 4.25571531e-01, 4.25571531e-01, 4.25571531e-01,
          1.10143788e-01, 1.56456217e-01, 4.25571531e-01, 4.25571531e-01,
          2.13786229e-01, 8.87598097e-02, 4.87823546e-01, 2.20760927e-01,
          8.10364261e-04, 8.95838737e-02, 4.87823546e-01, 4.87823546e-01,
          2.01911733e-01, 1.00942492e-01, 4.16525304e-01, 1.14148468e-01,
          2.79153794e-01, 4.71898228e-01, 4.71898228e-01, 1.15370825e-01,
          7.98266195e-03, 1.42826540e-02, 4.71898228e-01, 4.71898228e-01,
          3.65224294e-02, 2.46777967e-01, 4.52021033e-01, 4.52021033e-01,
          2.44177222e-01, 7.04899654e-02, 2.26645738e-01, 4.52021033e-01,
          4.52021033e-01, 4.70288575e-01, 5.10656983e-02, 2.06572581e-02,
          4.70288575e-01, 4.70288575e-01, 1.25381038e-01, 9.93550643e-02,
          2.86340564e-01, 4.70288575e-01, 3.73560399e-01, 3.70645255e-01,
          1.40091866e-01, 4.44971025e-02, 3.73560399e-01, 3.73560399e-01,
          3.73560399e-01, 3.73560399e-01, 3.73560399e-01, 3.91133010e-01,
          3.91133010e-01, 3.91133010e-01, 3.91133010e-01, 2.69365132e-01,
          5.49506247e-02, 5.10410666e-02, 3.91133010e-01, 3.91133010e-01,
          5.54133207e-02, 6.50314689e-02, 2.31397584e-01, 4.70976591e-01,
          2.17089966e-01, 6.88627688e-03, 4.70976591e-01, 4.70976591e-01,
          4.70976591e-01, 3.64306390e-01, 3.64306390e-01, 2.57897854e-01,
          2.29670048e-01, 3.64306390e-01, 3.64306390e-01, 2.84228593e-01,
          3.64306390e-01, 3.64306390e-01, 3.51183593e-01, 3.51183593e-01,
          3.51183593e-01, 3.51183593e-01, 3.48175347e-01, 3.12811315e-01,
          1.93480894e-01, 3.51183593e-01, 3.51183593e-01, 1.34693339e-01,
          2.79233307e-01, 4.34369564e-01, 2.03562602e-01, 6.96516931e-02,
          4.67627853e-01, 4.67627853e-01, 4.67627853e-01, 9.06760320e-02,
          4.45521027e-01, 1.86940730e-01, 1.59109328e-02, 4.03023988e-01,
          4.45521027e-01, 4.45521027e-01, 2.88386960e-02, 5.59812225e-02,
          4.45521027e-01, 4.38882887e-01, 5.26481904e-02, 8.18703230e-03,
          4.38882887e-01, 4.38882887e-01, 4.38882887e-01, 3.28565799e-02,
          1.69134885e-01, 4.38882887e-01, 7.41829351e-02, 8.60027745e-02,
          1.37096718e-01, 1.35548905e-01, 4.34876353e-01, 4.34876353e-01,
          4.34876353e-01, 4.34876353e-01, 4.34876353e-01, 4.45521027e-01,
          1.86940730e-01, 1.59109328e-02, 4.03023988e-01, 4.45521027e-01,
          4.45521027e-01, 2.88386960e-02, 5.59812225e-02, 4.45521027e-01,
          4.38882887e-01, 5.26481904e-02, 8.18703230e-03, 4.38882887e-01,
          4.38882887e-01, 4.38882887e-01, 3.28565799e-02, 1.69134885e-01,
          4.38882887e-01, 7.41829351e-02, 8.60027745e-02, 1.37096718e-01,
          1.35548905e-01, 4.34876353e-01, 4.34876353e-01, 4.34876353e-01,
          4.34876353e-01, 4.34876353e-01, 4.87823546e-01, 2.20760927e-01,
          8.10364261e-04, 8.95838737e-02, 4.87823546e-01, 4.87823546e-01,
          2.01911733e-01, 1.00942492e-01, 4.16525304e-01, 3.58374953e-01,
          2.50338256e-01, 3.70314509e-01, 4.37174886e-01, 4.37174886e-01,
          8.87442455e-02, 1.93079598e-02, 2.92889684e-01, 4.37174886e-01,
          5.66202439e-02, 2.40961045e-01, 4.28219527e-01, 2.87407726e-01,
          1.05247505e-01, 1.72985703e-01, 4.57233965e-01, 4.57233965e-01,
          4.57233965e-01, 4.70288575e-01, 5.10656983e-02, 2.06572581e-02,
          4.70288575e-01, 4.70288575e-01, 1.25381038e-01, 9.93550643e-02,
          2.86340564e-01, 4.70288575e-01, 4.35625613e-01, 4.35625613e-01,
          1.57054558e-01, 1.16169311e-01, 4.35625613e-01, 4.35625613e-01,
          7.86411017e-02, 4.95399870e-02, 4.35625613e-01, 4.78967398e-01,
          4.78967398e-01, 1.81327164e-01, 4.08330970e-02, 1.24885216e-01,
          4.78967398e-01, 4.78967398e-01, 1.61885545e-01, 3.50269489e-02 ]
      - [ 4.90865856e-01, 4.90865856e-01, 4.49702799e-01, 1.33114502e-01,
          1.35258377e-01, 4.90865856e-01, 1.32788390e-01, 1.81180257e-02,
          1.26655489e-01, 4.38676089e-01, 4.38676089e-01, 1.28955036e-01,
          2.78900247e-02, 1.45321950e-01, 4.38676089e-01, 1.42702773e-01,
          4.38676089e-01, 4.08633500e-01, 1.15797527e-01, 1.03897281e-01,
          2.89000180e-02, 2.34443285e-02, 2.73382396e-01, 1.97137028e-01,
          1.99014395e-01, 6.38291061e-01, 6.38291061e-01, 3.75003368e-01,
          4.61971611e-01, 4.61971611e-01, 1.60830796e-01, 3.30692023e-01,
          4.61971611e-01, 2.53285319e-01, 7.96588659e-02, 9.37127098e-02,
          2.92845696e-01, 3.83146614e-01, 3.83146614e-01, 3.83146614e-01,
          3.83146614e-01, 3.83146614e-01, 3.83146614e-01, 1.63112089e-01,
          5.47742657e-02, 6.82551600e-03, 1.28471227e-02, 7.86429495e-02,
          4.70807642e-01, 4.70807642e-01, 1.54976234e-01, 4.70807642e-01,
          4.70807642e-01, 2.79721379e-01, 5.36761805e-02, 4.29454803e-01,
          4.29454803e-01, 2.52828300e-01, 4.29454803e-01, 4.29454803e-01,
          4.07591254e-01, 1.52600691e-01, 4.19929996e-02, 4.10807878e-03,
          5.27939796e-01, 5.27939796e-01, 7.86382258e-02, 1.73611999e-01,
          1.94799811e-01, 5.27939796e-01, 2.89956450e-01, 1.42376181e-02,
          1.11798853e-01, 2.83929892e-02, 7.27960244e-02, 4.79880393e-01,
          4.79880393e-01, 1.35397539e-01, 4.79880393e-01, 4.79880393e-01,
          1.92690104e-01, 5.36761805e-02, 4.29454803e-01, 4.29454803e-01,
          2.52828300e-01, 4.29454803e-01, 4.29454803e-01, 4.07591254e-01,
          1.52600691e-01, 4.19929996e-02, 4.10807878e-03, 5.27939796e-01,
          5.27939796e-01, 7.86382258e-02, 1.73611999e-01, 1.94799811e-01,
          5.27939796e-01, 2.89956450e-01, 1.42376181e-02, 1.11798853e-01,
          2.83929892e-02, 7.27960244e-02, 4.79880393e-01, 4.79880393e-01,
          1.35397539e-01, 4.79880393e-01, 4.79880393e-01, 1.92690104e-01,
          6.06166534e-02, 4.39629853e-01, 4.39629853e-01, 2.35758349e-01,
          1.35919556e-01, 3.52908745e-02, 4.39629853e-01, 4.39629853e-01,
          3.78860027e-01, 5.64116016e-02, 4.37566519e-01, 4.37566519e-01,
          4.37566519e-01, 4.37566519e-01, 1.27843814e-02, 3.71725500e-01,
          2.46620536e-01, 1.65601850e-01, 4.65417355e-01, 9.25045833e-03,
          1.92306601e-02, 8.84982422e-02, 4.65417355e-01, 1.21091017e-02,
          4.24244940e-01, 3.96350175e-01, 4.65417355e-01, 6.39944971e-02,
          1.50587335e-01, 4.77867573e-01, 4.06609356e-01, 2.40216061e-01,
          6.41429499e-02, 2.37136483e-01, 4.77867573e-01, 4.77867573e-01,
          4.86857072e-02, 8.93416926e-02, 4.35465217e-01, 5.35732031e-01,
          5.35732031e-01, 1.80253774e-01, 6.06782585e-02, 2.07433045e-01,
          3.76096159e-01, 1.07103400e-01, 4.74005938e-03, 1.33022154e-02,
          2.97809839e-01, 9.14243698e-01, 4.72656637e-02, 3.56379002e-02,
          6.56861588e-02, 2.16464460e-01, 1.15797527e-01, 1.03897281e-01,
          2.89000180e-02, 2.34443285e-02, 2.73382396e-01, 1.97137028e-01,
          1.99014395e-01, 6.38291061e-01, 6.38291061e-01, 5.64837568e-02,
          7.47326240e-02, 3.90106231e-01, 4.33153957e-01, 4.33153957e-01,
          1.32204145e-01, 4.33153957e-01, 4.33153957e-01, 2.58355439e-01,
          1.19622990e-01, 2.68906802e-02, 3.91143620e-01, 5.45823991e-01,
          5.45823991e-01, 1.15064561e-01, 2.45848745e-01, 3.39529932e-01,
          2.04238668e-01, 6.82551600e-03, 1.28471227e-02, 7.86429495e-02,
          4.70807642e-01, 4.70807642e-01, 1.54976234e-01, 4.70807642e-01,
          4.70807642e-01, 2.79721379e-01, 2.90532969e-02, 3.99139337e-03,
          2.97395959e-02, 1.59797519e-01, 1.37250081e-01, 7.97211677e-02,
          6.72923625e-01, 6.72923625e-01, 1.87501565e-01, 1.65171981e-01,
          1.48049980e-01, 4.04831260e-01, 4.69189018e-01, 2.46074021e-01,
          3.23488653e-01, 4.69189018e-01, 3.66394997e-01, 2.06168726e-01,
          1.11798853e-01, 2.83929892e-02, 7.27960244e-02, 4.79880393e-01,
          4.79880393e-01, 1.35397539e-01, 4.79880393e-01, 4.79880393e-01,
          1.92690104e-01, 4.79320973e-01, 6.81235082e-03, 1.19229145e-02,
          1.83770612e-01, 4.31384981e-01, 1.63818225e-01, 4.79320973e-01,
          2.43058100e-01, 4.79320973e-01, 6.02925479e-01, 4.32002693e-02,
          1.71350595e-02, 1.36337895e-03, 4.53716666e-02, 5.65920807e-02,
          2.81867027e-01, 4.24346030e-01, 6.02925479e-01, 1.11798853e-01,
          2.83929892e-02, 7.27960244e-02, 4.79880393e-01, 4.79880393e-01,
          1.35397539e-01, 4.79880393e-01, 4.79880393e-01, 1.92690104e-01,
          4.79320973e-01, 6.81235082e-03, 1.19229145e-02, 1.83770612e-01,
          4.31384981e-01, 1.63818225e-01, 4.79320973e-01, 2.43058100e-01,
          4.79320973e-01, 6.02925479e-01, 4.32002693e-02, 1.71350595e-02,
          1.36337895e-03, 4.53716666e-02, 5.65920807e-02, 2.81867027e-01,
          4.24346030e-01, 6.02925479e-01, 4.65417355e-01, 9.25045833e-03,
          1.92306601e-02, 8.84982422e-02, 4.65417355e-01, 1.21091017e-02,
          4.24244940e-01, 3.96350175e-01, 4.65417355e-01, 5.75480342e-01,
          0., 5.85511079e-05, 2.21799836e-02, 5.75480342e-01,
          1.50321778e-02, 1.60968734e-03, 6.18159014e-04, 5.75480342e-01,
          5.28815269e-01, 4.33877762e-03, 1.05021382e-03, 1.92290191e-02,
          5.28815269e-01, 1.62189811e-01, 2.68517226e-01, 2.38715917e-01,
          5.28815269e-01, 1.07103400e-01, 4.74005938e-03, 1.33022154e-02,
          2.97809839e-01, 9.14243698e-01, 4.72656637e-02, 3.56379002e-02,
          6.56861588e-02, 2.16464460e-01, 2.27775410e-01, 2.95586996e-02,
          5.31865563e-03, 1.28237486e-01, 9.41977978e-01, 7.65928477e-02,
          3.24335583e-02, 2.04246938e-02, 1.63449824e-01, 5.15769064e-01,
          4.26061898e-01, 5.05523868e-02, 1.25227749e-01, 5.38481653e-01,
          4.26306158e-01, 1.75684184e-01, 7.83659965e-02, 1.41889945e-01 ]
      - [ 4.65031296e-01, 4.65031296e-01, 5.04454151e-02, 6.47064671e-02,
          3.14590305e-01, 4.65031296e-01, 4.65031296e-01, 1.16371572e-01,
          1.05345264e-01, 2.14138970e-01, 4.56189156e-01, 4.56189156e-01,
          2.13733509e-01, 4.56189156e-01, 4.56189156e-01, 2.65356302e-01,
          2.78591476e-02, 1.67775806e-02, 4.36142296e-01, 4.36142296e-01,
          4.36142296e-01, 4.85126823e-02, 2.77851801e-02, 6.02763705e-02,
          4.27052289e-01, 2.80990988e-01, 3.96099508e-01, 3.85530114e-01,
          3.12217683e-01, 7.54956156e-02, 3.50888595e-02, 2.26310566e-01,
          5.73105514e-01, 5.73105514e-01, 1.55568168e-01, 9.44206491e-02,
          4.37482027e-03, 6.95244074e-01, 6.95244074e-01, 4.34503481e-02,
          7.67946392e-02, 1.02416396e-01, 8.66190866e-02, 2.30418444e-02,
          1.94043142e-03, 6.37776777e-03, 5.68795800e-01, 5.68795800e-01,
          1.12207781e-03, 5.61629981e-03, 1.04310941e-02, 5.46840131e-01,
          2.19133303e-01, 5.19293500e-03, 6.42522201e-02, 4.97537181e-02,
          8.33218321e-02, 1.82703614e-01, 5.10047138e-01, 4.50597465e-01,
          5.10047138e-01, 4.71228063e-01, 5.08821011e-02, 8.63622408e-03,
          6.93715274e-01, 6.93715274e-01, 9.02017206e-02, 1.05523989e-01,
          8.75888169e-02, 5.49527854e-02, 2.33938079e-02, 2.80820276e-03,
          1.00405281e-02, 5.64317524e-01, 5.64317524e-01, 9.14571341e-03,
          7.77262216e-03, 3.09295412e-02, 5.58200717e-01, 2.11144194e-01,
          9.20971669e-03, 6.42522201e-02, 4.97537181e-02, 8.33218321e-02,
          1.82703614e-01, 5.10047138e-01, 4.50597465e-01, 5.10047138e-01,
          4.71228063e-01, 5.08821011e-02, 8.63622408e-03, 6.93715274e-01,
          6.93715274e-01, 9.02017206e-02, 1.05523989e-01, 8.75888169e-02,
          5.49527854e-02, 2.33938079e-02, 2.80820276e-03, 1.00405281e-02,
          5.64317524e-01, 5.64317524e-01, 9.14571341e-03, 7.77262216e-03,
          3.09295412e-02, 5.58200717e-01, 2.11144194e-01, 9.20971669e-03,
          2.19284907e-01, 8.72649327e-02, 1.14652157e-01, 4.91851196e-02,
          2.19903186e-01, 6.28671423e-02, 5.38839519e-01, 5.38839519e-01,
          5.38839519e-01, 1.65673252e-02, 7.00618625e-01, 7.00618625e-01,
          3.21155749e-02, 8.24749395e-02, 2.32575461e-02, 4.05418053e-02,
          2.95972582e-02, 1.02314502e-02, 1.93108816e-03, 5.85694492e-01,
          5.85694492e-01, 5.91370501e-02, 3.60338613e-02, 2.23409887e-02,
          5.12995362e-01, 1.99028999e-01, 6.47183682e-04, 6.29106089e-02,
          5.74179925e-02, 1.29304335e-01, 4.39437062e-01, 4.39437062e-01,
          2.91033119e-01, 3.38402361e-01, 4.39437062e-01, 4.39437062e-01,
          1.96848840e-01, 5.54350197e-01, 5.54350197e-01, 1.65631428e-01,
          5.14650308e-02, 2.22508237e-02, 4.94631119e-02, 3.28833997e-01,
          4.47158277e-01, 1.87808536e-02, 5.51378667e-01, 5.51378667e-01,
          2.00338408e-01, 3.52102816e-01, 7.45110512e-02, 4.41925794e-01,
          1.44231096e-01, 1.84317771e-02, 4.36142296e-01, 4.36142296e-01,
          4.36142296e-01, 4.85126823e-02, 2.77851801e-02, 6.02763705e-02,
          4.27052289e-01, 2.80990988e-01, 3.96099508e-01, 8.69590342e-02,
          3.43433917e-02, 7.60818943e-02, 4.43467647e-01, 2.07881674e-01,
          1.15997218e-01, 5.84182382e-01, 5.84182382e-01, 2.09201306e-01,
          3.65670212e-03, 5.70867173e-02, 3.56906414e-01, 7.66326070e-01,
          5.02298176e-01, 6.47627339e-02, 1.22821957e-01, 5.30927777e-02,
          6.31054211e-03, 6.37776777e-03, 5.68795800e-01, 5.68795800e-01,
          1.12207781e-03, 5.61629981e-03, 1.04310941e-02, 5.46840131e-01,
          2.19133303e-01, 5.19293500e-03, 1.66279892e-03, 6.67803502e-03,
          2.57661566e-02, 1.10449931e-02, 1.12694455e-02, 5.34549495e-03,
          7.04264104e-01, 7.04264104e-01, 2.25365534e-03, 1.22997733e-02,
          1.41732216e-01, 4.85038906e-01, 4.85038906e-01, 3.28703344e-01,
          3.22439343e-01, 4.85038906e-01, 2.38670334e-01, 1.22997733e-02,
          1.00405281e-02, 5.64317524e-01, 5.64317524e-01, 9.14571341e-03,
          7.77262216e-03, 3.09295412e-02, 5.58200717e-01, 2.11144194e-01,
          9.20971669e-03, 2.22998299e-03, 1.14983525e-02, 1.89740360e-02,
          1.34531315e-03, 1.48143678e-03, 4.55007143e-03, 7.04423606e-01,
          7.04423606e-01, 4.59011830e-03, 2.59851050e-02, 5.79043068e-02,
          2.18719289e-01, 4.31983620e-01, 3.75412077e-01, 3.96504581e-01,
          4.72153872e-01, 4.72153872e-01, 1.13133445e-01, 1.00405281e-02,
          5.64317524e-01, 5.64317524e-01, 9.14571341e-03, 7.77262216e-03,
          3.09295412e-02, 5.58200717e-01, 2.11144194e-01, 9.20971669e-03,
          2.22998299e-03, 1.14983525e-02, 1.89740360e-02, 1.34531315e-03,
          1.48143678e-03, 4.55007143e-03, 7.04423606e-01, 7.04423606e-01,
          4.59011830e-03, 2.59851050e-02, 5.79043068e-02, 2.18719289e-01,
          4.31983620e-01, 3.75412077e-01, 3.96504581e-01, 4.72153872e-01,
          4.72153872e-01, 1.13133445e-01, 1.93108816e-03, 5.85694492e-01,
          5.85694492e-01, 5.91370501e-02, 3.60338613e-02, 2.23409887e-02,
          5.12995362e-01, 1.99028999e-01, 6.47183682e-04, 3.95061827e-04,
          1.74319725e-02, 2.27152891e-02, 9.28361248e-03, 7.28057278e-03,
          7.69652799e-03, 7.04251707e-01, 7.04251707e-01, 3.21558514e-03,
          2.10108042e-01, 4.72333193e-01, 2.33199671e-01, 4.28739600e-02,
          2.29368974e-02, 1.40583709e-01, 4.72333193e-01, 4.72333193e-01,
          4.53134358e-01, 1.87808536e-02, 5.51378667e-01, 5.51378667e-01,
          2.00338408e-01, 3.52102816e-01, 7.45110512e-02, 4.41925794e-01,
          1.44231096e-01, 1.84317771e-02, 1.03437491e-01, 5.45002632e-02,
          3.23399380e-02, 3.70515347e-03, 9.49323550e-02, 1.56727612e-01,
          6.86775267e-01, 6.86775267e-01, 3.89708802e-02, 6.52297080e-01,
          6.52297080e-01, 1.19553708e-01, 1.52844833e-02, 1.04463901e-02,
          2.23694947e-02, 3.13054085e-01, 1.13320880e-01, 1.28545478e-01 ]
      - [ 3.77744198e-01, 2.06858158e-01, 3.77744198e-01, 3.77744198e-01,
          3.77744198e-01, 3.77744198e-01, 3.77744198e-01, 5.39948381e-02,
          3.07207078e-01, 4.47375387e-01, 3.64346862e-01, 4.47375387e-01,
          4.47375387e-01, 1.86118960e-01, 1.20330453e-01, 1.12055838e-01,
          2.29637865e-02, 4.47375387e-01, 4.71568257e-01, 6.76634954e-03,
          1.60927121e-02, 1.03999607e-01, 6.17451482e-02, 2.00367179e-02,
          3.81326303e-02, 1.49425671e-01, 8.54389191e-01, 1.76693991e-01,
          3.97872150e-01, 3.97872150e-01, 2.77581930e-01, 1.80178732e-01,
          3.97872150e-01, 3.97872150e-01, 3.97872150e-01, 2.52541512e-01,
          6.56857863e-02, 5.62416434e-01, 5.62416434e-01, 5.62416434e-01,
          9.73631367e-02, 4.87750694e-02, 1.26408845e-01, 1.01639397e-01,
          5.44437170e-02, 2.24388644e-01, 5.52867018e-02, 3.41649652e-01,
          4.76269543e-01, 3.22300851e-01, 9.80797485e-02, 1.76397532e-01,
          4.76269543e-01, 4.76269543e-01, 8.86546001e-02, 2.12137952e-01,
          4.53854322e-01, 2.46473506e-01, 4.26281691e-02, 2.36860842e-01,
          4.53854322e-01, 4.53854322e-01, 4.53854322e-01, 1.91899270e-01,
          1.80043340e-01, 4.51673806e-01, 4.51673806e-01, 4.51673806e-01,
          3.20436090e-01, 2.07527295e-01, 1.90745786e-01, 3.63440663e-01,
          1.07793912e-01, 3.42253707e-02, 3.66084352e-02, 6.84248447e-01,
          6.84248447e-01, 5.97627237e-02, 3.14944498e-02, 8.06493536e-02,
          1.77703083e-01, 8.86546001e-02, 2.12137952e-01, 4.53854322e-01,
          2.46473506e-01, 4.26281691e-02, 2.36860842e-01, 4.53854322e-01,
          4.53854322e-01, 4.53854322e-01, 1.91899270e-01, 1.80043340e-01,
          4.51673806e-01, 4.51673806e-01, 4.51673806e-01, 3.20436090e-01,
          2.07527295e-01, 1.90745786e-01, 3.63440663e-01, 1.07793912e-01,
          3.42253707e-02, 3.66084352e-02, 6.84248447e-01, 6.84248447e-01,
          5.97627237e-02, 3.14944498e-02, 8.06493536e-02, 1.77703083e-01,
          4.38995093e-01, 1.77511312e-02, 1.36141136e-01, 1.36210606e-01,
          7.90287405e-02, 2.40170453e-02, 1.88011318e-01, 6.00712836e-01,
          6.00712836e-01, 6.56130910e-01, 2.89670192e-02, 6.60147816e-02,
          2.35795423e-01, 2.14817017e-01, 1.49258524e-01, 3.91122587e-02,
          4.10272516e-02, 6.56130910e-01, 4.44612890e-01, 4.38113138e-02,
          3.29837762e-02, 4.44612890e-01, 4.44612890e-01, 6.15292527e-02,
          1.90395117e-02, 4.44612890e-01, 4.44612890e-01, 5.13174832e-02,
          6.07119815e-04, 5.65648638e-03, 6.98804498e-01, 6.98804498e-01,
          1.25284446e-02, 2.06454918e-02, 3.95709500e-02, 1.07488766e-01,
          2.04943836e-01, 4.03836276e-03, 2.32158788e-02, 5.72409391e-01,
          7.10414827e-01, 1.67282224e-01, 2.14262214e-02, 2.01168209e-02,
          2.98600733e-01, 7.76315182e-02, 1.23187797e-02, 2.80049033e-02,
          2.92362906e-02, 5.33309817e-01, 5.33309817e-01, 1.04761776e-02,
          3.65361214e-01, 5.33309817e-01, 4.71568257e-01, 6.76634954e-03,
          1.60927121e-02, 1.03999607e-01, 6.17451482e-02, 2.00367179e-02,
          3.81326303e-02, 1.49425671e-01, 8.54389191e-01, 1.66148424e-01,
          2.57673785e-02, 1.06064305e-02, 4.32618111e-02, 1.32237989e-02,
          0., 1.89117435e-03, 6.93773210e-01, 6.93773210e-01,
          2.53592402e-01, 2.06504852e-01, 2.54027128e-01, 3.87971818e-01,
          5.92285842e-02, 1.90701224e-02, 7.62803108e-03, 5.78053892e-01,
          5.78053892e-01, 2.24388644e-01, 5.52867018e-02, 3.41649652e-01,
          4.76269543e-01, 3.22300851e-01, 9.80797485e-02, 1.76397532e-01,
          4.76269543e-01, 4.76269543e-01, 3.31083983e-02, 2.59681214e-02,
          9.43323299e-02, 4.80522573e-01, 2.23345920e-01, 4.27699387e-02,
          1.14797294e-01, 5.86379886e-01, 5.86379886e-01, 5.12147974e-03,
          1.44452108e-02, 6.50945976e-02, 1.34129405e-01, 3.65910083e-02,
          3.63197667e-03, 2.83341080e-01, 6.66800618e-01, 6.66800618e-01,
          1.07793912e-01, 3.42253707e-02, 3.66084352e-02, 6.84248447e-01,
          6.84248447e-01, 5.97627237e-02, 3.14944498e-02, 8.06493536e-02,
          1.77703083e-01, 5.21113500e-02, 1.21491374e-02, 8.80333111e-02,
          6.85287058e-01, 6.85287058e-01, 6.95640370e-02, 2.00330559e-02,
          1.42148837e-01, 1.33650154e-01, 6.06791815e-03, 4.85567413e-02,
          2.21300498e-01, 3.59038860e-01, 4.34398443e-01, 1.02883019e-01,
          5.53487241e-01, 5.53487241e-01, 4.70349193e-02, 1.07793912e-01,
          3.42253707e-02, 3.66084352e-02, 6.84248447e-01, 6.84248447e-01,
          5.97627237e-02, 3.14944498e-02, 8.06493536e-02, 1.77703083e-01,
          5.21113500e-02, 1.21491374e-02, 8.80333111e-02, 6.85287058e-01,
          6.85287058e-01, 6.95640370e-02, 2.00330559e-02, 1.42148837e-01,
          1.33650154e-01, 6.06791815e-03, 4.85567413e-02, 2.21300498e-01,
          3.59038860e-01, 4.34398443e-01, 1.02883019e-01, 5.53487241e-01,
          5.53487241e-01, 4.70349193e-02, 4.44612890e-01, 4.38113138e-02,
          3.29837762e-02, 4.44612890e-01, 4.44612890e-01, 6.15292527e-02,
          1.90395117e-02, 4.44612890e-01, 4.44612890e-01, 3.96429271e-01,
          3.96429271e-01, 1.97489083e-01, 3.96429271e-01, 3.96429271e-01,
          1.10772558e-01, 4.27790321e-02, 3.96429271e-01, 3.96429271e-01,
          2.75323689e-01, 3.90716314e-01, 3.90716314e-01, 3.90716314e-01,
          3.90716314e-01, 3.90716314e-01, 3.90716314e-01, 6.53254613e-02,
          8.40881374e-03, 7.76315182e-02, 1.23187797e-02, 2.80049033e-02,
          2.92362906e-02, 5.33309817e-01, 5.33309817e-01, 1.04761776e-02,
          3.65361214e-01, 5.33309817e-01, 1.19747989e-01, 1.13538079e-01,
          8.69034752e-02, 1.97123736e-01, 4.29434508e-01, 4.29434508e-01,
          4.29434508e-01, 4.29434508e-01, 4.29434508e-01, 2.70731181e-01,
          3.85186255e-01, 2.18956843e-01, 4.20599371e-01, 4.20599371e-01,
          4.20599371e-01, 4.20599371e-01, 1.33216769e-01, 2.88176406e-02 ]
      - [ 3.69464129e-01, 6.21542692e-01, 2.88848057e-02, 1.88564677e-02,
          5.36414795e-02, 6.21542692e-01, 2.82628477e-01, 2.19948664e-02,
          1.51679264e-02, 2.10071757e-01, 4.11799401e-01, 4.11799401e-01,
          4.11799401e-01, 4.11799401e-01, 4.11799401e-01, 2.27059826e-01,
          2.23702118e-01, 4.75790910e-02, 1.66652709e-01, 3.82180870e-01,
          3.82180870e-01, 3.82180870e-01, 3.82180870e-01, 1.88524798e-01,
          2.47818977e-01, 3.82180870e-01, 3.75688285e-01, 3.42390865e-01,
          1.78801119e-01, 3.89109105e-02, 2.30824612e-02, 1.67700931e-01,
          5.36172330e-01, 5.36172330e-01, 4.03050631e-01, 2.79038221e-01,
          3.04830313e-01, 4.65524524e-01, 4.65524524e-01, 2.39848375e-01,
          1.35286376e-01, 1.83007419e-01, 3.17384362e-01, 4.52906579e-01,
          2.31999785e-01, 3.47518653e-01, 2.01488793e-01, 3.47518653e-01,
          3.47518653e-01, 3.47518653e-01, 3.32484245e-01, 3.47518653e-01,
          3.47518653e-01, 3.47518653e-01, 8.42040256e-02, 5.59050925e-02,
          1.02908038e-01, 8.38422105e-02, 4.57441598e-01, 4.59047318e-01,
          5.14877677e-01, 5.14877677e-01, 1.29797786e-01, 4.05555218e-01,
          4.05555218e-01, 4.05555218e-01, 4.05555218e-01, 3.96121621e-01,
          3.32326144e-01, 2.26985812e-01, 9.28826332e-02, 1.02692276e-01,
          3.55582118e-01, 3.48258883e-01, 2.17693225e-01, 3.55582118e-01,
          3.55582118e-01, 3.55582118e-01, 2.62946457e-01, 3.55582118e-01,
          3.55582118e-01, 8.42040256e-02, 5.59050925e-02, 1.02908038e-01,
          8.38422105e-02, 4.57441598e-01, 4.59047318e-01, 5.14877677e-01,
          5.14877677e-01, 1.29797786e-01, 4.05555218e-01, 4.05555218e-01,
          4.05555218e-01, 4.05555218e-01, 3.96121621e-01, 3.32326144e-01,
          2.26985812e-01, 9.28826332e-02, 1.02692276e-01, 3.55582118e-01,
          3.48258883e-01, 2.17693225e-01, 3.55582118e-01, 3.55582118e-01,
          3.55582118e-01, 2.62946457e-01, 3.55582118e-01, 3.55582118e-01,
          5.69009110e-02, 3.48875001e-02, 5.34643419e-02, 1.86631426e-01,
          4.84211706e-02, 9.44728032e-03, 4.95786726e-01, 5.93167067e-01,
          5.93167067e-01, 3.45670849e-01, 4.57541227e-01, 4.57541227e-01,
          4.57541227e-01, 4.40031551e-02, 1.54767737e-01, 1.62467271e-01,
          3.53729457e-01, 2.65518636e-01, 3.47981960e-01, 3.47981960e-01,
          3.47981960e-01, 3.47981960e-01, 3.09716940e-01, 3.47981960e-01,
          2.30127245e-01, 3.47981960e-01, 3.47981960e-01, 1.45048508e-02,
          1.23237809e-02, 2.24833220e-01, 5.60684741e-01, 1.25598619e-02,
          5.68945659e-03, 1.40241357e-02, 5.60684741e-01, 5.60684741e-01,
          4.03122723e-01, 4.03122723e-01, 4.03122723e-01, 4.03122723e-01,
          8.19053873e-02, 9.68021080e-02, 6.96144626e-02, 4.03122723e-01,
          4.03122723e-01, 3.54379714e-01, 2.76042134e-01, 3.54379714e-01,
          3.54379714e-01, 3.54379714e-01, 3.54379714e-01, 3.54379714e-01,
          2.02892080e-01, 3.54379714e-01, 1.66652709e-01, 3.82180870e-01,
          3.82180870e-01, 3.82180870e-01, 3.82180870e-01, 1.88524798e-01,
          2.47818977e-01, 3.82180870e-01, 3.75688285e-01, 1.03294045e-01,
          1.34961367e-01, 3.95390660e-01, 3.95390660e-01, 3.83886516e-01,
          2.54130453e-01, 3.95390660e-01, 3.95390660e-01, 3.60388070e-01,
          1.10549957e-01, 2.66315583e-02, 4.41677332e-01, 5.08445084e-01,
          3.96540537e-02, 3.14094573e-02, 9.38316062e-02, 5.08445084e-01,
          5.08445084e-01, 3.47518653e-01, 2.01488793e-01, 3.47518653e-01,
          3.47518653e-01, 3.47518653e-01, 3.32484245e-01, 3.47518653e-01,
          3.47518653e-01, 3.47518653e-01, 3.75454128e-01, 4.63607945e-02,
          1.13298379e-01, 3.68060261e-01, 3.75454128e-01, 3.75454128e-01,
          3.75454128e-01, 3.75454128e-01, 3.75454128e-01, 9.26033258e-02,
          4.73174453e-02, 6.15114152e-01, 6.15114152e-01, 1.72983885e-01,
          1.02666117e-01, 1.29935592e-01, 2.78488964e-01, 3.02341133e-01,
          3.55582118e-01, 3.48258883e-01, 2.17693225e-01, 3.55582118e-01,
          3.55582118e-01, 3.55582118e-01, 2.62946457e-01, 3.55582118e-01,
          3.55582118e-01, 1.49747193e-01, 5.24999015e-02, 1.11059226e-01,
          4.16344464e-01, 4.16344464e-01, 3.02675903e-01, 4.16344464e-01,
          4.16344464e-01, 4.16344464e-01, 8.74764100e-03, 5.53949296e-01,
          5.53949296e-01, 3.78853023e-01, 2.35861301e-01, 2.37649530e-01,
          3.25978816e-01, 1.29214048e-01, 4.55650650e-02, 3.55582118e-01,
          3.48258883e-01, 2.17693225e-01, 3.55582118e-01, 3.55582118e-01,
          3.55582118e-01, 2.62946457e-01, 3.55582118e-01, 3.55582118e-01,
          1.49747193e-01, 5.24999015e-02, 1.11059226e-01, 4.16344464e-01,
          4.16344464e-01, 3.02675903e-01, 4.16344464e-01, 4.16344464e-01,
          4.16344464e-01, 8.74764100e-03, 5.53949296e-01, 5.53949296e-01,
          3.78853023e-01, 2.35861301e-01, 2.37649530e-01, 3.25978816e-01,
          1.29214048e-01, 4.55650650e-02, 3.47981960e-01, 3.47981960e-01,
          3.47981960e-01, 3.47981960e-01, 3.09716940e-01, 3.47981960e-01,
          2.30127245e-01, 3.47981960e-01, 3.47981960e-01, 2.74007618e-01,
          3.21844161e-01, 2.55013227e-01, 2.71921843e-01, 1.11956827e-01,
          4.17528212e-01, 4.17528212e-01, 4.17528212e-01, 3.77714515e-01,
          3.48212510e-01, 5.32667160e-01, 5.32667160e-01, 1.66818183e-02,
          2.96228230e-02, 1.07501969e-01, 4.60332692e-01, 2.62038410e-01,
          1.12592429e-01, 3.54379714e-01, 2.76042134e-01, 3.54379714e-01,
          3.54379714e-01, 3.54379714e-01, 3.54379714e-01, 3.54379714e-01,
          2.02892080e-01, 3.54379714e-01, 3.86118203e-01, 3.02857608e-01,
          3.65067720e-02, 9.25390273e-02, 3.86118203e-01, 3.86118203e-01,
          3.86118203e-01, 3.86118203e-01, 3.86118203e-01, 5.59012890e-01,
          5.59012890e-01, 8.75946507e-02, 1.48435438e-03, 4.65983525e-02,
          5.59012890e-01, 2.12021738e-01, 3.43351811e-02, 3.08692958e-02 ]
      - [ 5.06452858e-01, 5.06452858e-01, 2.41170824e-01, 3.97617966e-02,
          7.94211477e-02, 5.06452858e-01, 1.91072017e-01, 1.62026972e-01,
          3.10877800e-01, 4.93325859e-01, 4.93325859e-01, 2.00669363e-01,
          1.47044465e-01, 3.89248163e-01, 4.93325859e-01, 1.76285282e-01,
          5.13433032e-02, 1.33583456e-01, 5.09183109e-01, 5.09183109e-01,
          5.79554960e-02, 4.67125773e-02, 4.03640896e-01, 1.83556437e-01,
          1.48805231e-02, 3.50295424e-01, 3.88962388e-01, 4.42594260e-01,
          4.42594260e-01, 4.03286427e-01, 7.14313537e-02, 1.36659890e-01,
          4.42594260e-01, 4.42594260e-01, 1.41885564e-01, 7.39632472e-02,
          3.77826303e-01, 5.27453661e-01, 5.27453661e-01, 1.17232502e-01,
          1.68223232e-01, 4.99779612e-01, 3.61678675e-02, 4.44378182e-02,
          2.14472059e-02, 3.71334046e-01, 3.83398652e-01, 3.83398652e-01,
          3.23306501e-01, 3.83398652e-01, 3.83398652e-01, 3.83398652e-01,
          1.23446770e-01, 5.95135838e-02, 9.04685482e-02, 3.31316710e-01,
          4.17302907e-01, 3.94822210e-01, 1.15640551e-01, 4.17302907e-01,
          4.17302907e-01, 4.17302907e-01, 1.09780371e-01, 2.45493725e-02,
          4.53457981e-01, 4.53457981e-01, 4.04312670e-01, 4.53457981e-01,
          4.53457981e-01, 7.77200311e-02, 2.62150019e-02, 4.66364771e-02,
          5.20354789e-03, 5.00279546e-01, 5.00279546e-01, 1.41358301e-01,
          1.70586824e-01, 4.02522802e-01, 5.00279546e-01, 1.80478290e-01,
          2.14108098e-02, 9.04685482e-02, 3.31316710e-01, 4.17302907e-01,
          3.94822210e-01, 1.15640551e-01, 4.17302907e-01, 4.17302907e-01,
          4.17302907e-01, 1.09780371e-01, 2.45493725e-02, 4.53457981e-01,
          4.53457981e-01, 4.04312670e-01, 4.53457981e-01, 4.53457981e-01,
          7.77200311e-02, 2.62150019e-02, 4.66364771e-02, 5.20354789e-03,
          5.00279546e-01, 5.00279546e-01, 1.41358301e-01, 1.70586824e-01,
          4.02522802e-01, 5.00279546e-01, 1.80478290e-01, 2.14108098e-02,
          6.00151531e-02, 2.10827589e-01, 1.91120550e-01, 2.85436362e-01,
          2.55076259e-01, 1.46274775e-01, 5.08013129e-01, 5.08013129e-01,
          4.75668460e-01, 1.09506845e-01, 6.19528413e-01, 6.19528413e-01,
          3.83040547e-01, 1.72130600e-01, 1.35603964e-01, 7.80527368e-02,
          7.79228359e-02, 8.53826329e-02, 9.26613901e-03, 5.57501018e-01,
          5.57501018e-01, 1.81998890e-02, 9.11790784e-03, 6.74872147e-03,
          5.57501018e-01, 2.47733340e-01, 9.65471659e-03, 6.79287016e-02,
          2.36678161e-02, 3.84819895e-01, 4.95891184e-01, 2.91476607e-01,
          3.39943245e-02, 1.33970365e-01, 4.95891184e-01, 4.95891184e-01,
          2.00288460e-01, 5.24519444e-01, 5.24519444e-01, 2.29276091e-01,
          6.75248057e-02, 1.19530363e-02, 2.46268082e-02, 2.67222404e-01,
          5.24519444e-01, 2.04460304e-02, 4.73031491e-01, 4.73031491e-01,
          1.93418413e-01, 4.60731417e-01, 1.41103357e-01, 4.73031491e-01,
          2.29936928e-01, 3.34031358e-02, 5.09183109e-01, 5.09183109e-01,
          5.79554960e-02, 4.67125773e-02, 4.03640896e-01, 1.83556437e-01,
          1.48805231e-02, 3.50295424e-01, 3.88962388e-01, 1.37944385e-01,
          1.02349430e-01, 2.05115434e-02, 3.19930047e-01, 4.50128824e-01,
          9.06469673e-02, 4.67895009e-02, 5.69653213e-01, 5.69653213e-01,
          1.63316965e-01, 2.32279133e-02, 1.52408704e-01, 5.03995836e-01,
          5.03995836e-01, 4.25096378e-02, 1.40310332e-01, 5.03995836e-01,
          4.01243806e-01, 3.71334046e-01, 3.83398652e-01, 3.83398652e-01,
          3.23306501e-01, 3.83398652e-01, 3.83398652e-01, 3.83398652e-01,
          1.23446770e-01, 5.95135838e-02, 1.47784699e-03, 1.33651188e-02,
